{"learner":{"attributes":{"scikit_learn":"{\"_estimator_type\": \"regressor\"}"},"feature_names":["Age","SCA90","GCA90","COV_Factor","Tax_Rate","Masa_Salarial_X","PassLive_P90","PassDead_P90","TO_P90","Sh_P90","Fld_P90","Def_P90","SCA_P90","GCA_P90","Attack_Efficiency_Ratio","Foul_Prone_Ratio","Net_Creative_Impact","Wage_Club_Ratio","Viability_Score","Club_Purchasing_Power","Age_Sq","Age_Prime_Flag","Perf_Age_Interaction","Pos_FW","Pos_GK","Pos_MF","Comp_La Liga","Comp_Ligue 1","Comp_Premier League","Comp_Serie A"],"feature_types":["int","float","float","float","float","float","float","float","float","float","float","float","float","float","float","float","float","float","float","float","int","int","float","float","float","float","float","float","float","float"],"gradient_booster":{"model":{"cats":{"enc":[],"feature_segments":[],"sorted_idx":[]},"gbtree_model_param":{"num_parallel_tree":"1","num_trees":"500"},"iteration_indptr":[0,1,2,3,4,5,6,7,8,9,10,11,12,13,14,15,16,17,18,19,20,21,22,23,24,25,26,27,28,29,30,31,32,33,34,35,36,37,38,39,40,41,42,43,44,45,46,47,48,49,50,51,52,53,54,55,56,57,58,59,60,61,62,63,64,65,66,67,68,69,70,71,72,73,74,75,76,77,78,79,80,81,82,83,84,85,86,87,88,89,90,91,92,93,94,95,96,97,98,99,100,101,102,103,104,105,106,107,108,109,110,111,112,113,114,115,116,117,118,119,120,121,122,123,124,125,126,127,128,129,130,131,132,133,134,135,136,137,138,139,140,141,142,143,144,145,146,147,148,149,150,151,152,153,154,155,156,157,158,159,160,161,162,163,164,165,166,167,168,169,170,171,172,173,174,175,176,177,178,179,180,181,182,183,184,185,186,187,188,189,190,191,192,193,194,195,196,197,198,199,200,201,202,203,204,205,206,207,208,209,210,211,212,213,214,215,216,217,218,219,220,221,222,223,224,225,226,227,228,229,230,231,232,233,234,235,236,237,238,239,240,241,242,243,244,245,246,247,248,249,250,251,252,253,254,255,256,257,258,259,260,261,262,263,264,265,266,267,268,269,270,271,272,273,274,275,276,277,278,279,280,281,282,283,284,285,286,287,288,289,290,291,292,293,294,295,296,297,298,299,300,301,302,303,304,305,306,307,308,309,310,311,312,313,314,315,316,317,318,319,320,321,322,323,324,325,326,327,328,329,330,331,332,333,334,335,336,337,338,339,340,341,342,343,344,345,346,347,348,349,350,351,352,353,354,355,356,357,358,359,360,361,362,363,364,365,366,367,368,369,370,371,372,373,374,375,376,377,378,379,380,381,382,383,384,385,386,387,388,389,390,391,392,393,394,395,396,397,398,399,400,401,402,403,404,405,406,407,408,409,410,411,412,413,414,415,416,417,418,419,420,421,422,423,424,425,426,427,428,429,430,431,432,433,434,435,436,437,438,439,440,441,442,443,444,445,446,447,448,449,450,451,452,453,454,455,456,457,458,459,460,461,462,463,464,465,466,467,468,469,470,471,472,473,474,475,476,477,478,479,480,481,482,483,484,485,486,487,488,489,490,491,492,493,494,495,496,497,498,499,500],"tree_info":[0,0,0,0,0,0,0,0,0,0,0,0,0,0,0,0,0,0,0,0,0,0,0,0,0,0,0,0,0,0,0,0,0,0,0,0,0,0,0,0,0,0,0,0,0,0,0,0,0,0,0,0,0,0,0,0,0,0,0,0,0,0,0,0,0,0,0,0,0,0,0,0,0,0,0,0,0,0,0,0,0,0,0,0,0,0,0,0,0,0,0,0,0,0,0,0,0,0,0,0,0,0,0,0,0,0,0,0,0,0,0,0,0,0,0,0,0,0,0,0,0,0,0,0,0,0,0,0,0,0,0,0,0,0,0,0,0,0,0,0,0,0,0,0,0,0,0,0,0,0,0,0,0,0,0,0,0,0,0,0,0,0,0,0,0,0,0,0,0,0,0,0,0,0,0,0,0,0,0,0,0,0,0,0,0,0,0,0,0,0,0,0,0,0,0,0,0,0,0,0,0,0,0,0,0,0,0,0,0,0,0,0,0,0,0,0,0,0,0,0,0,0,0,0,0,0,0,0,0,0,0,0,0,0,0,0,0,0,0,0,0,0,0,0,0,0,0,0,0,0,0,0,0,0,0,0,0,0,0,0,0,0,0,0,0,0,0,0,0,0,0,0,0,0,0,0,0,0,0,0,0,0,0,0,0,0,0,0,0,0,0,0,0,0,0,0,0,0,0,0,0,0,0,0,0,0,0,0,0,0,0,0,0,0,0,0,0,0,0,0,0,0,0,0,0,0,0,0,0,0,0,0,0,0,0,0,0,0,0,0,0,0,0,0,0,0,0,0,0,0,0,0,0,0,0,0,0,0,0,0,0,0,0,0,0,0,0,0,0,0,0,0,0,0,0,0,0,0,0,0,0,0,0,0,0,0,0,0,0,0,0,0,0,0,0,0,0,0,0,0,0,0,0,0,0,0,0,0,0,0,0,0,0,0,0,0,0,0,0,0,0,0,0,0,0,0,0,0,0,0,0,0,0,0,0,0,0,0,0,0,0,0,0,0,0,0,0,0,0,0,0,0,0,0,0,0,0,0,0,0,0,0,0,0,0,0,0,0,0,0,0,0,0,0,0,0,0,0,0,0,0,0,0,0,0,0,0,0,0,0,0,0,0,0,0,0,0,0,0,0],"trees":[{"base_weights":[6.9611263E-9,-6.6792333E-1,2.1848391E-1,-1.0031452E0,-1.4064199E-1,-2.3595044E-1,6.370217E-1,-1.5061148E0,-8.133585E-1,-9.838783E-1,9.876031E-2,-5.006732E-1,1.0134723E-1,4.3740803E-1,1.0618734E0,-1.06356315E-1,-1.3835084E0,-1.2272415E0,-6.380333E-1,-1.5466121E0,-6.976915E-1,-1.7764214E-1,4.6134195E-1,-7.177744E-1,-3.160284E-1,-9.6458554E-2,3.3969274E-1,9.6215606E-2,7.0061797E-1,8.9912164E-1,1.382176E0,-7.4267946E-2,-5.5151608E-2,-7.7488475E-2,-5.3003814E-2,-7.632689E-1,-4.7394753E-1,-8.016929E-2,-2.163322E-2,-7.411292E-1,-7.418823E-2,-4.253597E-1,-2.1784361E-2,1.4391303E-1,6.402657E-1,-9.5237964E-1,-5.675858E-1,-4.7611606E-1,-1.3871701E-1,-2.7387053E-1,9.294754E-2,1.6828452E-1,5.9073913E-1,-1.945596E-2,3.3251104E-1,5.7219195E-1,9.7517395E-1,7.839454E-1,6.3352145E-2,5.7677176E-2,7.733814E-2,-4.1992303E-2,-2.852503E-2,-3.0937603E-2,-1.7520348E-2,-1.7358828E-2,-3.8795378E-2,-7.459712E-3,1.8955946E-3,-2.3367427E-2,-1.0431773E-2,-7.5464286E-3,5.169178E-3,-1.1308738E-3,1.7138897E-2,2.0679673E-2,3.732063E-2,-5.136239E-2,-3.9125826E-2,-4.0320747E-2,-2.497443E-2,-2.8399834E-2,-1.4233067E-2,-1.3027437E-2,-3.4005166E-4,-2.5457297E-2,-8.808006E-3,3.6451023E-5,1.647382E-2,4.240268E-3,1.998446E-2,1.6118454E-2,3.3626016E-2,-8.142674E-3,5.0858054E-3,6.7897015E-3,2.2131473E-2,1.8629743E-2,3.3276718E-2,4.3580845E-2,5.8325805E-2,2.8932566E-2,4.330098E-2],"categories":[],"categories_nodes":[],"categories_segments":[],"categories_sizes":[],"default_left":[0,0,0,0,0,0,0,0,0,0,0,0,0,0,0,0,0,0,0,0,0,0,0,0,0,0,0,0,0,0,0,0,0,0,0,0,0,0,0,0,0,0,0,0,0,0,0,0,0,0,0,0,0,0,0,0,0,0,0,0,0,0,0,0,0,0,0,0,0,0,0,0,0,0,0,0,0,0,0,0,0,0,0,0,0,0,0,0,0,0,0,0,0,0,0,0,0,0,0,0,0,0,0],"id":0,"left_children":[1,3,5,7,9,11,13,15,17,19,21,23,25,27,29,-1,31,33,35,37,39,41,43,45,47,49,51,53,55,57,59,-1,-1,-1,-1,61,63,-1,-1,65,67,69,71,73,75,77,79,81,83,85,87,89,91,93,95,97,99,101,-1,-1,-1,-1,-1,-1,-1,-1,-1,-1,-1,-1,-1,-1,-1,-1,-1,-1,-1,-1,-1,-1,-1,-1,-1,-1,-1,-1,-1,-1,-1,-1,-1,-1,-1,-1,-1,-1,-1,-1,-1,-1,-1,-1,-1],"loss_changes":[2.8004062E2,8.3464615E1,2.751765E2,2.636206E1,3.744362E1,6.2018253E1,6.3394592E1,2.9960327E0,1.4600571E1,5.5238686E0,1.4613628E1,1.5366852E1,1.4459477E1,4.6092506E1,1.1268433E1,0E0,3.0412292E-1,1.6998901E0,2.7412071E0,1.2842941E-1,7.304411E-1,3.195256E0,3.4859781E0,5.7312775E0,5.9516525E0,5.6707435E0,5.881954E0,6.1563177E0,9.667435E0,5.871582E0,1.1884918E0,0E0,0E0,0E0,0E0,7.60849E-1,9.996519E-1,0E0,0E0,1.00551605E-1,3.0880785E-2,1.9369507E-1,8.561685E-1,8.025626E-1,6.537094E-1,6.0935974E-2,1.402462E0,1.7909126E0,1.637526E0,1.9103394E0,1.7883718E0,1.5887716E0,1.0122681E0,2.6576824E0,1.5428944E0,3.4781952E0,7.863922E-1,1.6218872E0,0E0,0E0,0E0,0E0,0E0,0E0,0E0,0E0,0E0,0E0,0E0,0E0,0E0,0E0,0E0,0E0,0E0,0E0,0E0,0E0,0E0,0E0,0E0,0E0,0E0,0E0,0E0,0E0,0E0,0E0,0E0,0E0,0E0,0E0,0E0,0E0,0E0,0E0,0E0,0E0,0E0,0E0,0E0,0E0,0E0],"parents":[2147483647,0,0,1,1,2,2,3,3,4,4,5,5,6,6,7,7,8,8,9,9,10,10,11,11,12,12,13,13,14,14,16,16,17,17,18,18,19,19,20,20,21,21,22,22,23,23,24,24,25,25,26,26,27,27,28,28,29,29,30,30,35,35,36,36,39,39,40,40,41,41,42,42,43,43,44,44,45,45,46,46,47,47,48,48,49,49,50,50,51,51,52,52,53,53,54,54,55,55,56,56,57,57],"right_children":[2,4,6,8,10,12,14,16,18,20,22,24,26,28,30,-1,32,34,36,38,40,42,44,46,48,50,52,54,56,58,60,-1,-1,-1,-1,62,64,-1,-1,66,68,70,72,74,76,78,80,82,84,86,88,90,92,94,96,98,100,102,-1,-1,-1,-1,-1,-1,-1,-1,-1,-1,-1,-1,-1,-1,-1,-1,-1,-1,-1,-1,-1,-1,-1,-1,-1,-1,-1,-1,-1,-1,-1,-1,-1,-1,-1,-1,-1,-1,-1,-1,-1,-1,-1,-1,-1],"split_conditions":[1.9729229E-2,7.72605E7,5.608741E7,4.432E7,7.4582365E-3,4.646078E-2,1.122E8,8.035065E-3,1.1238645E-2,4.142502E-3,1.57285E8,3.146E7,2.992485E7,3.57503E-2,3.405171E-2,-1.06356315E-1,1.7157353E-2,7.0978906E-3,1.5705049E-2,2.5758E8,2.5758E8,1.367879E-2,1.2727773E-2,3.1056566E-2,3.0977655E-2,6.61157E-2,6.61157E-2,7.512783E7,5.658915E-2,2.2204E8,1.57285E8,-7.4267946E-2,-5.5151608E-2,-7.7488475E-2,-5.3003814E-2,6.742E7,6.0645E7,-8.016929E-2,-2.163322E-2,9.398461E-1,1.9E1,1.2582E8,1.0909E8,2.223156E8,1.84652E8,2.798E7,2.507E7,4.779E7,4.432E7,2.16E7,9.5208205E-2,4.432E7,3.019E7,2.6448803E-2,2.5963807E-2,6.222E7,7.654505E-2,2.3794204E-2,6.3352145E-2,5.7677176E-2,7.733814E-2,-4.1992303E-2,-2.852503E-2,-3.0937603E-2,-1.7520348E-2,-1.7358828E-2,-3.8795378E-2,-7.459712E-3,1.8955946E-3,-2.3367427E-2,-1.0431773E-2,-7.5464286E-3,5.169178E-3,-1.1308738E-3,1.7138897E-2,2.0679673E-2,3.732063E-2,-5.136239E-2,-3.9125826E-2,-4.0320747E-2,-2.497443E-2,-2.8399834E-2,-1.4233067E-2,-1.3027437E-2,-3.4005166E-4,-2.5457297E-2,-8.808006E-3,3.6451023E-5,1.647382E-2,4.240268E-3,1.998446E-2,1.6118454E-2,3.3626016E-2,-8.142674E-3,5.0858054E-3,6.7897015E-3,2.2131473E-2,1.8629743E-2,3.3276718E-2,4.3580845E-2,5.8325805E-2,2.8932566E-2,4.330098E-2],"split_indices":[17,19,19,5,17,17,5,17,17,17,5,5,19,17,17,0,17,17,17,5,5,17,17,17,17,17,17,19,17,5,5,0,0,0,0,5,5,0,0,3,0,5,5,5,5,5,5,5,5,5,17,5,5,17,17,5,17,17,0,0,0,0,0,0,0,0,0,0,0,0,0,0,0,0,0,0,0,0,0,0,0,0,0,0,0,0,0,0,0,0,0,0,0,0,0,0,0,0,0,0,0,0,0],"split_type":[0,0,0,0,0,0,0,0,0,0,0,0,0,0,0,0,0,0,0,0,0,0,0,0,0,0,0,0,0,0,0,0,0,0,0,0,0,0,0,0,0,0,0,0,0,0,0,0,0,0,0,0,0,0,0,0,0,0,0,0,0,0,0,0,0,0,0,0,0,0,0,0,0,0,0,0,0,0,0,0,0,0,0,0,0,0,0,0,0,0,0,0,0,0,0,0,0,0,0,0,0,0,0],"sum_hessian":[1.917E3,4.72E2,1.445E3,2.88E2,1.84E2,6.93E2,7.52E2,7.7E1,2.11E2,4E1,1.44E2,3.88E2,3.05E2,5.13E2,2.39E2,1E1,6.7E1,6.1E1,1.5E2,1.2E1,2.8E1,8.2E1,6.2E1,1.77E2,2.11E2,1.67E2,1.38E2,2.24E2,2.89E2,1.61E2,7.8E1,4.6E1,2.1E1,1.8E1,4.3E1,8.3E1,6.7E1,1.1E1,1E0,2.6E1,2E0,3.1E1,5.1E1,2.3E1,3.9E1,6.7E1,1.1E2,1.1E2,1.01E2,8.6E1,8.1E1,8.3E1,5.5E1,1.51E2,7.3E1,1.99E2,9E1,1.25E2,3.6E1,3.6E1,4.2E1,5.7E1,2.6E1,2.9E1,3.8E1,3E0,2.3E1,1E0,1E0,2.5E1,6E0,2.5E1,2.6E1,1.3E1,1E1,1.4E1,2.5E1,4.3E1,2.4E1,2.2E1,8.8E1,7.3E1,3.7E1,5.2E1,4.9E1,2.4E1,6.2E1,5.9E1,2.2E1,6.2E1,2.1E1,1.4E1,4.1E1,6.9E1,8.2E1,2.7E1,4.6E1,6.5E1,1.34E2,6.2E1,2.8E1,3.8E1,8.7E1],"tree_param":{"num_deleted":"0","num_feature":"30","num_nodes":"103","size_leaf_vector":"1"}},{"base_weights":[-1.6484942E-4,-6.3581866E-1,2.0776351E-1,-9.5466685E-1,-1.3428915E-1,-2.2437704E-1,6.057685E-1,-1.4338316E0,-7.7386725E-1,-9.386726E-1,9.408333E-2,-4.3304935E-1,1.64694E-1,4.158871E-1,1.0099072E0,-1.01521924E-1,-1.3162359E0,-1.1679837E0,-6.0691965E-1,-1.4771122E0,-6.6493505E-1,-1.6919564E-1,4.3944955E-1,-6.334846E-1,-2.5493595E-1,-8.599366E-3,4.211852E-1,9.151952E-2,6.661175E-1,8.550026E-1,1.3147762E0,-7.063354E-2,-5.251935E-2,-7.3817946E-2,-5.041383E-2,-7.2594494E-1,-4.5096317E-1,-7.649484E-2,-2.109239E-2,-7.0615244E-1,-7.2333656E-2,-4.051475E-1,-2.0740729E-2,1.3738465E-1,6.097022E-1,-8.382996E-1,-4.466264E-1,-4.5269474E-1,-8.54233E-2,-1.0108379E-1,2.569112E-1,2.9334626E-1,7.1523833E-1,-1.850344E-2,3.1627586E-1,5.438419E-1,9.27535E-1,6.368158E-1,1.0312413E0,5.4871257E-2,7.3561154E-2,-4.4499442E-2,-3.1631302E-2,-2.9442305E-2,-1.6666811E-2,-1.6707873E-2,-3.693643E-2,-7.273221E-3,1.848197E-3,-2.5360674E-2,-1.4879216E-2,-7.18362E-3,4.9203043E-3,-1.0783605E-3,1.6359877E-2,1.9714633E-2,3.5526346E-2,-4.5849077E-2,-3.364744E-2,-3.239138E-2,-1.9400513E-2,-2.699905E-2,-1.3540161E-2,-1.0381798E-2,1.0389731E-3,-1.3744339E-2,-1.2642005E-3,4.1270987E-3,1.8998666E-2,9.601462E-3,2.2871003E-2,1.9651089E-2,3.7553605E-2,-6.169486E-3,6.58139E-3,6.4623184E-3,2.1048421E-2,2.0533811E-2,3.377748E-2,4.0972598E-2,5.463336E-2,2.360306E-2,3.710821E-2,4.4374373E-2,6.0270127E-2],"categories":[],"categories_nodes":[],"categories_segments":[],"categories_sizes":[],"default_left":[0,0,0,0,0,0,0,0,0,0,0,0,0,0,0,0,0,0,0,0,0,0,0,0,0,0,0,0,0,0,0,0,0,0,0,0,0,0,0,0,0,0,0,0,0,0,0,0,0,0,0,0,0,0,0,0,0,0,0,0,0,0,0,0,0,0,0,0,0,0,0,0,0,0,0,0,0,0,0,0,0,0,0,0,0,0,0,0,0,0,0,0,0,0,0,0,0,0,0,0,0,0,0,0,0],"id":1,"left_children":[1,3,5,7,9,11,13,15,17,19,21,23,25,27,29,-1,31,33,35,37,39,41,43,45,47,49,51,53,55,57,59,-1,-1,-1,-1,61,63,-1,-1,65,67,69,71,73,75,77,79,81,83,85,87,89,91,93,95,97,99,101,103,-1,-1,-1,-1,-1,-1,-1,-1,-1,-1,-1,-1,-1,-1,-1,-1,-1,-1,-1,-1,-1,-1,-1,-1,-1,-1,-1,-1,-1,-1,-1,-1,-1,-1,-1,-1,-1,-1,-1,-1,-1,-1,-1,-1,-1,-1],"loss_changes":[2.5363503E2,7.551007E1,2.4883939E2,2.3927277E1,3.4072636E1,5.641603E1,5.7364014E1,2.79982E0,1.3240059E1,5.060852E0,1.3258863E1,1.5974998E1,1.0804541E1,4.165869E1,1.0210007E1,0E0,2.594757E-1,1.5648956E0,2.475605E0,7.8739166E-2,6.5725994E-1,2.8989384E0,3.1561584E0,7.7391205E0,8.040281E0,3.6110861E0,3.4741478E0,5.5697327E0,8.765396E0,5.5726547E0,1.0717621E0,0E0,0E0,0E0,0E0,7.228699E-1,9.065914E-1,0E0,0E0,8.033848E-2,2.935599E-2,2.003746E-1,7.7577794E-1,7.311634E-1,5.8858967E-1,6.839371E-1,1.081316E0,1.6160755E0,1.7046056E0,1.4290407E0,7.840495E-1,1.0758047E0,3.9653778E-2,2.4097407E0,1.394556E0,3.230362E0,7.2878265E-1,9.5140266E-1,1.1334305E0,0E0,0E0,0E0,0E0,0E0,0E0,0E0,0E0,0E0,0E0,0E0,0E0,0E0,0E0,0E0,0E0,0E0,0E0,0E0,0E0,0E0,0E0,0E0,0E0,0E0,0E0,0E0,0E0,0E0,0E0,0E0,0E0,0E0,0E0,0E0,0E0,0E0,0E0,0E0,0E0,0E0,0E0,0E0,0E0,0E0,0E0],"parents":[2147483647,0,0,1,1,2,2,3,3,4,4,5,5,6,6,7,7,8,8,9,9,10,10,11,11,12,12,13,13,14,14,16,16,17,17,18,18,19,19,20,20,21,21,22,22,23,23,24,24,25,25,26,26,27,27,28,28,29,29,30,30,35,35,36,36,39,39,40,40,41,41,42,42,43,43,44,44,45,45,46,46,47,47,48,48,49,49,50,50,51,51,52,52,53,53,54,54,55,55,56,56,57,57,58,58],"right_children":[2,4,6,8,10,12,14,16,18,20,22,24,26,28,30,-1,32,34,36,38,40,42,44,46,48,50,52,54,56,58,60,-1,-1,-1,-1,62,64,-1,-1,66,68,70,72,74,76,78,80,82,84,86,88,90,92,94,96,98,100,102,104,-1,-1,-1,-1,-1,-1,-1,-1,-1,-1,-1,-1,-1,-1,-1,-1,-1,-1,-1,-1,-1,-1,-1,-1,-1,-1,-1,-1,-1,-1,-1,-1,-1,-1,-1,-1,-1,-1,-1,-1,-1,-1,-1,-1,-1,-1],"split_conditions":[1.9729229E-2,7.72605E7,5.608741E7,4.432E7,7.4582365E-3,5.175185E-2,1.122E8,8.035065E-3,1.1238645E-2,4.142502E-3,1.57285E8,3.146E7,3.0583258E7,3.57503E-2,3.405171E-2,-1.01521924E-1,1.7157353E-2,7.0978906E-3,1.5705049E-2,2.5758E8,2.5758E8,1.367879E-2,1.2727773E-2,3.603758E-2,3.0977655E-2,8.5507244E-2,7.9338074E-2,7.512783E7,5.658915E-2,1.59341E8,1.57285E8,-7.063354E-2,-5.251935E-2,-7.3817946E-2,-5.041383E-2,5.864E7,6.0645E7,-7.649484E-2,-2.109239E-2,9.398461E-1,1.9E1,1.1013848E-2,1.0909E8,2.223156E8,1.84652E8,2.899E7,2.507E7,4.779E7,4.032117E7,2.16E7,2.16E7,3.884E7,3.019E7,2.8321318E-2,2.5963807E-2,6.78288E7,7.4338816E-2,2.6448803E-2,2.2204E8,5.4871257E-2,7.3561154E-2,-4.4499442E-2,-3.1631302E-2,-2.9442305E-2,-1.6666811E-2,-1.6707873E-2,-3.693643E-2,-7.273221E-3,1.848197E-3,-2.5360674E-2,-1.4879216E-2,-7.18362E-3,4.9203043E-3,-1.0783605E-3,1.6359877E-2,1.9714633E-2,3.5526346E-2,-4.5849077E-2,-3.364744E-2,-3.239138E-2,-1.9400513E-2,-2.699905E-2,-1.3540161E-2,-1.0381798E-2,1.0389731E-3,-1.3744339E-2,-1.2642005E-3,4.1270987E-3,1.8998666E-2,9.601462E-3,2.2871003E-2,1.9651089E-2,3.7553605E-2,-6.169486E-3,6.58139E-3,6.4623184E-3,2.1048421E-2,2.0533811E-2,3.377748E-2,4.0972598E-2,5.463336E-2,2.360306E-2,3.710821E-2,4.4374373E-2,6.0270127E-2],"split_indices":[17,19,19,5,17,17,5,17,17,17,5,5,19,17,17,0,17,17,17,5,5,17,17,17,17,17,17,19,17,5,5,0,0,0,0,5,5,0,0,3,0,17,5,5,5,5,5,5,19,5,5,5,5,17,17,5,17,17,5,0,0,0,0,0,0,0,0,0,0,0,0,0,0,0,0,0,0,0,0,0,0,0,0,0,0,0,0,0,0,0,0,0,0,0,0,0,0,0,0,0,0,0,0,0,0],"split_type":[0,0,0,0,0,0,0,0,0,0,0,0,0,0,0,0,0,0,0,0,0,0,0,0,0,0,0,0,0,0,0,0,0,0,0,0,0,0,0,0,0,0,0,0,0,0,0,0,0,0,0,0,0,0,0,0,0,0,0,0,0,0,0,0,0,0,0,0,0,0,0,0,0,0,0,0,0,0,0,0,0,0,0,0,0,0,0,0,0,0,0,0,0,0,0,0,0,0,0,0,0,0,0,0,0],"sum_hessian":[1.917E3,4.72E2,1.445E3,2.88E2,1.84E2,6.93E2,7.52E2,7.7E1,2.11E2,4E1,1.44E2,4.51E2,2.42E2,5.13E2,2.39E2,1E1,6.7E1,6.1E1,1.5E2,1.2E1,2.8E1,8.2E1,6.2E1,2.11E2,2.4E2,1.45E2,9.7E1,2.24E2,2.89E2,1.61E2,7.8E1,4.6E1,2.1E1,1.8E1,4.3E1,8.3E1,6.7E1,1.1E1,1E0,2.6E1,2E0,3.1E1,5.1E1,2.3E1,3.9E1,9.9E1,1.12E2,1.1E2,1.3E2,1.08E2,3.7E1,6.9E1,2.8E1,1.51E2,7.3E1,1.99E2,9E1,7.4E1,8.7E1,3.6E1,4.2E1,2.7E1,5.6E1,2.9E1,3.8E1,3E0,2.3E1,1E0,1E0,1.4E1,1.7E1,2.5E1,2.6E1,1.3E1,1E1,1.4E1,2.5E1,6.4E1,3.5E1,2.3E1,8.9E1,7.3E1,3.7E1,6E1,7E1,3.2E1,7.6E1,1.6E1,2.1E1,4.4E1,2.5E1,4E0,2.4E1,8.9E1,6.2E1,2.7E1,4.6E1,1.01E2,9.8E1,5.8E1,3.2E1,3.1E1,4.3E1,5.1E1,3.6E1],"tree_param":{"num_deleted":"0","num_feature":"30","num_nodes":"105","size_leaf_vector":"1"}},{"base_weights":[-2.6682694E-4,-6.052956E-1,1.9764389E-1,-1.0357733E0,-2.6640597E-1,-2.1327823E-1,5.761064E-1,-1.4002832E0,-8.487236E-1,-7.9156077E-1,-4.4312183E-2,-4.5388302E-1,9.328562E-2,3.954388E-1,9.606359E-1,-8.2841426E-2,-5.7369776E-2,-1.0908874E0,-6.179979E-1,-1.4228963E0,-6.456477E-1,-2.8731632E-1,4.663246E-1,-6.189832E-1,-2.5469697E-1,-8.644271E-2,3.098401E-1,8.203068E-2,6.2968284E-1,8.1327295E-1,1.2506633E0,-6.700591E-2,-4.6963047E-2,-3.789213E-2,-5.2153724E-1,-7.3453635E-2,-2.0565081E-2,-8.29878E-1,-3.10315E-1,-4.3548542E-1,-1.1743413E-1,2.1160631E-1,5.7651603E-1,-7.6778144E-1,-4.2402598E-1,-4.035261E-1,-9.438689E-2,-2.491474E-1,8.723717E-2,1.545045E-1,5.3731066E-1,-2.2674944E-2,2.9462117E-1,5.1394975E-1,8.822089E-1,6.057842E-1,9.808683E-1,1.0440365E0,6.9968656E-2,-2.8781457E-2,-2.0120494E-2,-4.339722E-2,-2.2841088E-2,-2.5079468E-2,-6.2100105E-3,-2.6920928E-2,-1.2961911E-2,-1.1399019E-2,6.2046706E-4,3.2006528E-3,1.523337E-2,1.6779881E-2,3.1602573E-2,-4.35919E-2,-3.1542294E-2,-2.57141E-2,-1.4740506E-2,-2.4082223E-2,-1.3431482E-2,-8.963553E-3,1.5422715E-3,-2.320267E-2,-7.995626E-3,1.2232781E-3,1.9519016E-2,3.8799073E-3,1.838567E-2,1.4731347E-2,3.0559516E-2,-7.437307E-3,4.3960395E-3,6.1507532E-3,1.9633614E-2,1.9316483E-2,3.20136E-2,3.9376896E-2,5.287261E-2,2.2459768E-2,3.5294957E-2,4.2198315E-2,5.7338055E-2,4.2158104E-2,5.949809E-2],"categories":[],"categories_nodes":[],"categories_segments":[],"categories_sizes":[],"default_left":[0,0,0,0,0,0,0,0,0,0,0,0,0,0,0,0,0,0,0,0,0,0,0,0,0,0,0,0,0,0,0,0,0,0,0,0,0,0,0,0,0,0,0,0,0,0,0,0,0,0,0,0,0,0,0,0,0,0,0,0,0,0,0,0,0,0,0,0,0,0,0,0,0,0,0,0,0,0,0,0,0,0,0,0,0,0,0,0,0,0,0,0,0,0,0,0,0,0,0,0,0,0,0],"id":2,"left_children":[1,3,5,7,9,11,13,15,17,19,21,23,25,27,29,-1,-1,31,33,35,37,39,41,43,45,47,49,51,53,55,57,-1,-1,-1,59,-1,-1,61,63,65,67,69,71,73,75,77,79,81,83,85,87,89,91,93,95,97,99,101,-1,-1,-1,-1,-1,-1,-1,-1,-1,-1,-1,-1,-1,-1,-1,-1,-1,-1,-1,-1,-1,-1,-1,-1,-1,-1,-1,-1,-1,-1,-1,-1,-1,-1,-1,-1,-1,-1,-1,-1,-1,-1,-1,-1,-1],"loss_changes":[2.2978416E2,6.87274E1,2.2500282E2,1.2993301E1,3.0989464E1,5.1232285E1,5.1932556E1,2.5754852E0,7.1481094E0,6.358799E0,2.3462313E1,1.2634872E1,1.1936601E1,3.7683144E1,9.240295E0,0E0,0E0,1.2732162E0,6.0298157E-1,4.9734116E-2,3.8198528E0,3.170785E0,1.5901413E0,5.8244095E0,4.2087812E0,4.7691684E0,4.8284464E0,4.926012E0,8.138916E0,5.0392227E0,9.664688E-1,0E0,0E0,0E0,7.1219444E-2,0E0,0E0,1.9994354E-1,8.2767725E-1,1.0940552E0,8.784054E-1,2.552011E-1,3.4982395E-1,1.1456451E0,9.446621E-1,8.4010124E-1,9.303606E-1,1.5942001E0,1.5508091E0,1.3488238E0,8.239727E-1,2.0905752E0,1.1800051E0,3.0413818E0,6.7694855E-1,8.586769E-1,1.0307388E0,8.123779E-2,0E0,0E0,0E0,0E0,0E0,0E0,0E0,0E0,0E0,0E0,0E0,0E0,0E0,0E0,0E0,0E0,0E0,0E0,0E0,0E0,0E0,0E0,0E0,0E0,0E0,0E0,0E0,0E0,0E0,0E0,0E0,0E0,0E0,0E0,0E0,0E0,0E0,0E0,0E0,0E0,0E0,0E0,0E0,0E0,0E0],"parents":[2147483647,0,0,1,1,2,2,3,3,4,4,5,5,6,6,7,7,8,8,9,9,10,10,11,11,12,12,13,13,14,14,17,17,18,18,19,19,20,20,21,21,22,22,23,23,24,24,25,25,26,26,27,27,28,28,29,29,30,30,34,34,37,37,38,38,39,39,40,40,41,41,42,42,43,43,44,44,45,45,46,46,47,47,48,48,49,49,50,50,51,51,52,52,53,53,54,54,55,55,56,56,57,57],"right_children":[2,4,6,8,10,12,14,16,18,20,22,24,26,28,30,-1,-1,32,34,36,38,40,42,44,46,48,50,52,54,56,58,-1,-1,-1,60,-1,-1,62,64,66,68,70,72,74,76,78,80,82,84,86,88,90,92,94,96,98,100,102,-1,-1,-1,-1,-1,-1,-1,-1,-1,-1,-1,-1,-1,-1,-1,-1,-1,-1,-1,-1,-1,-1,-1,-1,-1,-1,-1,-1,-1,-1,-1,-1,-1,-1,-1,-1,-1,-1,-1,-1,-1,-1,-1,-1,-1],"split_conditions":[1.9729229E-2,6.584E7,5.608741E7,3.9881204E7,9.93495E-3,4.646078E-2,1.122E8,1.5127133E-2,1.284945E-2,4.142502E-3,1.32912E8,3.496E7,2.992485E7,3.552318E-2,3.405171E-2,-8.2841426E-2,-5.7369776E-2,9.36895E-3,5.173E7,2.5758E8,1.362E8,9.168E7,1.724008E8,3.603758E-2,3.0072609E-2,6.61157E-2,6.61157E-2,7.512783E7,5.658915E-2,1.59341E8,1.57285E8,-6.700591E-2,-4.6963047E-2,-3.789213E-2,1.7157353E-2,-7.3453635E-2,-2.0565081E-2,1.3488109E8,6.5269736E-3,1.6427744E-2,1.5413447E-2,1.3830157E-2,1.1732852E-2,2.899E7,2.798E7,4.779E7,4.534E7,2.16E7,1.08283564E-1,4.432E7,3.019E7,2.6448803E-2,2.5963807E-2,6.78288E7,7.654505E-2,2.6448803E-2,2.2204E8,4.2872455E-2,6.9968656E-2,-2.8781457E-2,-2.0120494E-2,-4.339722E-2,-2.2841088E-2,-2.5079468E-2,-6.2100105E-3,-2.6920928E-2,-1.2961911E-2,-1.1399019E-2,6.2046706E-4,3.2006528E-3,1.523337E-2,1.6779881E-2,3.1602573E-2,-4.35919E-2,-3.1542294E-2,-2.57141E-2,-1.4740506E-2,-2.4082223E-2,-1.3431482E-2,-8.963553E-3,1.5422715E-3,-2.320267E-2,-7.995626E-3,1.2232781E-3,1.9519016E-2,3.8799073E-3,1.838567E-2,1.4731347E-2,3.0559516E-2,-7.437307E-3,4.3960395E-3,6.1507532E-3,1.9633614E-2,1.9316483E-2,3.20136E-2,3.9376896E-2,5.287261E-2,2.2459768E-2,3.5294957E-2,4.2198315E-2,5.7338055E-2,4.2158104E-2,5.949809E-2],"split_indices":[17,5,19,19,17,17,5,17,17,17,5,5,19,17,17,0,0,17,5,5,5,5,5,17,17,17,17,19,17,5,5,0,0,0,17,0,0,19,17,17,17,17,17,5,5,5,5,5,17,5,5,17,17,5,17,17,5,17,0,0,0,0,0,0,0,0,0,0,0,0,0,0,0,0,0,0,0,0,0,0,0,0,0,0,0,0,0,0,0,0,0,0,0,0,0,0,0,0,0,0,0,0,0],"split_type":[0,0,0,0,0,0,0,0,0,0,0,0,0,0,0,0,0,0,0,0,0,0,0,0,0,0,0,0,0,0,0,0,0,0,0,0,0,0,0,0,0,0,0,0,0,0,0,0,0,0,0,0,0,0,0,0,0,0,0,0,0,0,0,0,0,0,0,0,0,0,0,0,0,0,0,0,0,0,0,0,0,0,0,0,0,0,0,0,0,0,0,0,0,0,0,0,0,0,0,0,0,0,0],"sum_hessian":[1.917E3,4.72E2,1.445E3,2.07E2,2.65E2,6.93E2,7.52E2,6.8E1,1.39E2,7.8E1,1.87E2,3.88E2,3.05E2,5.13E2,2.39E2,3.1E1,3.7E1,6.6E1,7.3E1,1.3E1,6.5E1,1.27E2,6E1,2.11E2,1.77E2,1.67E2,1.38E2,2.2E2,2.93E2,1.61E2,7.8E1,2.2E1,4.4E1,2.7E1,4.6E1,1.2E1,1E0,4.1E1,2.4E1,6.7E1,6E1,1.9E1,4.1E1,1.18E2,9.3E1,9.1E1,8.6E1,8.6E1,8.1E1,8.3E1,5.5E1,1.48E2,7.2E1,2.03E2,9E1,7.4E1,8.7E1,3.6E1,4.2E1,2.9E1,1.7E1,3.6E1,5E0,1.1E1,1.3E1,4.1E1,2.6E1,3.2E1,2.8E1,8E0,1.1E1,9E0,3.2E1,6.4E1,5.4E1,5.3E1,4E1,5.6E1,3.5E1,5.1E1,3.5E1,2.4E1,6.2E1,6.8E1,1.3E1,6.2E1,2.1E1,1.4E1,4.1E1,6.9E1,7.9E1,2.7E1,4.5E1,1.03E2,1E2,6.2E1,2.8E1,3.1E1,4.3E1,5.1E1,3.6E1,1.8E1,1.8E1],"tree_param":{"num_deleted":"0","num_feature":"30","num_nodes":"103","size_leaf_vector":"1"}},{"base_weights":[-3.1841884E-4,-5.53069E-1,1.9603318E-1,-8.49888E-1,-8.770609E-2,-1.4190385E-1,6.130816E-1,-1.2772342E0,-6.8583906E-1,-6.8129843E-1,1.7101309E-1,-3.4663886E-1,1.5856285E-1,4.503595E-1,9.7710526E-1,-9.3141764E-2,-1.1729255E0,-1.0601715E0,-5.3924733E-1,-1.3470278E0,-4.8680303E-1,-8.8215396E-2,4.9019986E-1,-5.757198E-1,-1.6450357E-1,-4.0073976E-2,4.2812297E-1,2.2715703E-1,7.0746064E-1,8.3922577E-1,1.2338815E0,-6.385522E-2,-4.7808174E-2,-6.750313E-2,-4.554483E-2,-6.5673816E-1,-4.091413E-1,-6.962218E-2,-2.0050956E-2,-6.145915E-1,-2.1762455E-1,-2.3049669E-1,4.9157213E-2,2.4849027E-1,5.555216E-1,-6.966382E-1,-3.6835822E-1,-3.277177E-1,-1.88932E-2,-2.1685953E-1,1.0735237E-1,2.736348E-1,6.285015E-1,8.807554E-2,4.269852E-1,6.169263E-1,4.6506025E-2,7.330489E-1,5.480514E-2,1.1201081E0,7.597081E-2,-4.0446356E-2,-2.852285E-2,-2.6628846E-2,-1.4802225E-2,-3.231878E-2,-1.5684118E-2,-2.1106524E-2,-1.6128684E-3,-1.5660595E-2,-4.8593762E-3,-4.3525035E-3,7.680848E-3,4.6141557E-3,1.7118735E-2,2.2856189E-2,3.618735E-2,-4.5548245E-2,-3.181791E-2,-2.8636187E-2,-1.6126161E-2,-2.226909E-2,-1.0793655E-2,-6.442647E-3,5.790096E-3,-2.1350397E-2,-6.5311566E-3,4.545768E-5,1.2842906E-2,8.116002E-3,2.1025443E-2,2.4269572E-2,3.77437E-2,-8.926062E-4,1.1998474E-2,1.4965898E-2,2.810112E-2,2.700879E-2,4.0532418E-2,2.8821195E-2,3.999538E-2,4.7580607E-2,6.3500784E-2],"categories":[],"categories_nodes":[],"categories_segments":[],"categories_sizes":[],"default_left":[0,0,0,0,0,0,0,0,0,0,0,0,0,0,0,0,0,0,0,0,0,0,0,0,0,0,0,0,0,0,0,0,0,0,0,0,0,0,0,0,0,0,0,0,0,0,0,0,0,0,0,0,0,0,0,0,0,0,0,0,0,0,0,0,0,0,0,0,0,0,0,0,0,0,0,0,0,0,0,0,0,0,0,0,0,0,0,0,0,0,0,0,0,0,0,0,0,0,0,0,0,0,0],"id":3,"left_children":[1,3,5,7,9,11,13,15,17,19,21,23,25,27,29,-1,31,33,35,37,39,41,43,45,47,49,51,53,55,57,59,-1,-1,-1,-1,61,63,-1,-1,65,67,69,71,73,75,77,79,81,83,85,87,89,91,93,95,97,-1,99,-1,101,-1,-1,-1,-1,-1,-1,-1,-1,-1,-1,-1,-1,-1,-1,-1,-1,-1,-1,-1,-1,-1,-1,-1,-1,-1,-1,-1,-1,-1,-1,-1,-1,-1,-1,-1,-1,-1,-1,-1,-1,-1,-1,-1],"loss_changes":[2.0827559E2,6.940413E1,1.996525E2,2.0646454E1,3.0370535E1,4.822203E1,3.7114746E1,2.946045E0,1.1720085E1,7.113142E0,1.1461681E1,1.9348549E1,1.704433E1,2.5088974E1,5.8683014E0,0E0,4.499588E-1,1.4531784E0,2.2229652E0,1.335144E-4,1.5173492E0,1.516338E0,8.408699E-1,4.9086E0,6.196648E0,4.818845E0,4.0070953E0,6.5491905E0,3.5384827E0,2.7421799E0,4.4218445E-1,0E0,0E0,0E0,0E0,6.4154816E-1,9.5914745E-1,0E0,0E0,1.0329628E-1,6.308309E-1,3.8857412E-1,5.824994E-1,1.8838584E-1,4.637022E-1,1.0869293E0,5.459175E-1,1.5225449E0,2.0736558E0,1.4665074E0,1.6070676E0,1.2069845E0,6.8252945E-1,2.2729416E0,1.5040398E0,1.7626114E0,0E0,5.3372955E-1,0E0,7.963562E-2,0E0,0E0,0E0,0E0,0E0,0E0,0E0,0E0,0E0,0E0,0E0,0E0,0E0,0E0,0E0,0E0,0E0,0E0,0E0,0E0,0E0,0E0,0E0,0E0,0E0,0E0,0E0,0E0,0E0,0E0,0E0,0E0,0E0,0E0,0E0,0E0,0E0,0E0,0E0,0E0,0E0,0E0,0E0],"parents":[2147483647,0,0,1,1,2,2,3,3,4,4,5,5,6,6,7,7,8,8,9,9,10,10,11,11,12,12,13,13,14,14,16,16,17,17,18,18,19,19,20,20,21,21,22,22,23,23,24,24,25,25,26,26,27,27,28,28,29,29,30,30,35,35,36,36,39,39,40,40,41,41,42,42,43,43,44,44,45,45,46,46,47,47,48,48,49,49,50,50,51,51,52,52,53,53,54,54,55,55,57,57,59,59],"right_children":[2,4,6,8,10,12,14,16,18,20,22,24,26,28,30,-1,32,34,36,38,40,42,44,46,48,50,52,54,56,58,60,-1,-1,-1,-1,62,64,-1,-1,66,68,70,72,74,76,78,80,82,84,86,88,90,92,94,96,98,-1,100,-1,102,-1,-1,-1,-1,-1,-1,-1,-1,-1,-1,-1,-1,-1,-1,-1,-1,-1,-1,-1,-1,-1,-1,-1,-1,-1,-1,-1,-1,-1,-1,-1,-1,-1,-1,-1,-1,-1,-1,-1,-1,-1,-1,-1],"split_conditions":[2.033772E-2,7.72605E7,5.995706E7,4.432E7,9.93495E-3,4.7727916E-2,1.2547737E8,8.035065E-3,1.1238645E-2,4.142502E-3,1.57285E8,3.439E7,3.317E7,4.0252544E-2,3.405171E-2,-9.3141764E-2,1.7157353E-2,7.0978906E-3,1.5705049E-2,2.5758E8,1.7479E8,1.5413447E-2,1.2727773E-2,3.79415E-2,3.1134617E-2,6.48663E-2,6.585895E-2,7.72605E7,6.133507E-2,2.2204E8,5.175185E-2,-6.385522E-2,-4.7808174E-2,-6.750313E-2,-4.554483E-2,5.864E7,6.0645E7,-6.962218E-2,-2.0050956E-2,9.131313E-3,5.881418E-3,1.0909E8,1.0909E8,1.7479E8,2.223156E8,2.507E7,2.507E7,4.779E7,4.779E7,2.507E7,8.5507244E-2,4.53E7,8.1141576E-2,2.9752588E-2,3.0189559E-2,8.61432E7,4.6506025E-2,2.4922598E-2,5.480514E-2,1.64788E8,7.597081E-2,-4.0446356E-2,-2.852285E-2,-2.6628846E-2,-1.4802225E-2,-3.231878E-2,-1.5684118E-2,-2.1106524E-2,-1.6128684E-3,-1.5660595E-2,-4.8593762E-3,-4.3525035E-3,7.680848E-3,4.6141557E-3,1.7118735E-2,2.2856189E-2,3.618735E-2,-4.5548245E-2,-3.181791E-2,-2.8636187E-2,-1.6126161E-2,-2.226909E-2,-1.0793655E-2,-6.442647E-3,5.790096E-3,-2.1350397E-2,-6.5311566E-3,4.545768E-5,1.2842906E-2,8.116002E-3,2.1025443E-2,2.4269572E-2,3.77437E-2,-8.926062E-4,1.1998474E-2,1.4965898E-2,2.810112E-2,2.700879E-2,4.0532418E-2,2.8821195E-2,3.999538E-2,4.7580607E-2,6.3500784E-2],"split_indices":[17,19,19,5,17,17,19,17,17,17,5,5,5,17,17,0,17,17,17,5,5,17,17,17,17,17,17,19,17,5,17,0,0,0,0,5,5,0,0,17,17,5,5,5,5,5,5,5,5,5,17,5,17,17,17,5,0,17,0,5,0,0,0,0,0,0,0,0,0,0,0,0,0,0,0,0,0,0,0,0,0,0,0,0,0,0,0,0,0,0,0,0,0,0,0,0,0,0,0,0,0,0,0],"split_type":[0,0,0,0,0,0,0,0,0,0,0,0,0,0,0,0,0,0,0,0,0,0,0,0,0,0,0,0,0,0,0,0,0,0,0,0,0,0,0,0,0,0,0,0,0,0,0,0,0,0,0,0,0,0,0,0,0,0,0,0,0,0,0,0,0,0,0,0,0,0,0,0,0,0,0,0,0,0,0,0,0,0,0,0,0,0,0,0,0,0,0,0,0,0,0,0,0,0,0,0,0,0,0],"sum_hessian":[1.917E3,5.02E2,1.415E3,3.06E2,1.96E2,7.82E2,6.33E2,8.3E1,2.23E2,5.9E1,1.37E2,4.65E2,3.17E2,4.39E2,1.94E2,1E1,7.3E1,6.1E1,1.62E2,1.2E1,4.7E1,7.6E1,6.1E1,2.05E2,2.6E2,1.83E2,1.34E2,2.36E2,2.03E2,1.29E2,6.5E1,4.6E1,2.7E1,1.8E1,4.3E1,8.3E1,7.9E1,1.1E1,1E0,3.1E1,1.6E1,3.7E1,3.9E1,1.4E1,4.7E1,1.28E2,7.7E1,1.22E2,1.38E2,8.3E1,1E2,7.7E1,5.7E1,1.4E2,9.6E1,1.47E2,5.6E1,9.4E1,3.5E1,5E1,1.5E1,2.7E1,5.6E1,3.6E1,4.3E1,2.7E1,4E0,7E0,9E0,2.2E1,1.5E1,1.7E1,2.2E1,6E0,8E0,3.2E1,1.5E1,2.5E1,1.03E2,1.2E1,6.5E1,5.8E1,6.4E1,7.6E1,6.2E1,2.3E1,6E1,5.9E1,4.1E1,4.5E1,3.2E1,2.9E1,2.8E1,8.3E1,5.7E1,5.1E1,4.5E1,1.08E2,3.9E1,3.1E1,6.3E1,2.7E1,2.3E1],"tree_param":{"num_deleted":"0","num_feature":"30","num_nodes":"103","size_leaf_vector":"1"}},{"base_weights":[-3.6809195E-4,-5.264595E-1,1.8651351E-1,-8.087887E-1,-8.381214E-2,-1.8395516E-1,5.309871E-1,-1.2158105E0,-6.5254486E-1,-8.148685E-1,1.0763451E-1,-3.5148364E-1,1.6785316E-1,3.7252036E-1,8.9952964E-1,-8.890806E-2,-1.115788E0,-1.0089865E0,-5.129625E-1,-6.432872E-2,-5.7531524E-1,-1.3114183E-1,3.987036E-1,-5.054437E-1,-1.7613657E-1,1.6296202E-2,3.9672565E-1,1.4773746E-1,6.254873E-1,7.96985E-1,6.161209E-2,-6.0256053E-2,-4.462452E-2,-6.4305626E-2,-4.3319352E-2,-6.247226E-1,-3.8920242E-1,-6.120954E-1,-5.2522022E-2,-3.532166E-1,-1.900145E-3,1.21546306E-1,5.2897596E-1,-6.624064E-1,-3.295655E-1,-3.486132E-1,-2.9718071E-2,-6.49647E-2,2.232965E-1,2.8120777E-1,6.2204796E-1,3.561858E-2,3.4246814E-1,4.9150297E-1,7.740933E-1,6.8419755E-1,1.0489515E0,-3.4550685E-2,-2.2959078E-2,-2.5333408E-2,-1.4078947E-2,-1.43493535E-2,-3.2038808E-2,-5.936718E-3,1.9975663E-3,-2.1259854E-2,-1.2164612E-2,-5.869424E-3,5.1051346E-3,-4.3779905E-3,1.15785925E-2,1.9280218E-2,3.131028E-2,-3.764486E-2,-2.6744677E-2,-2.656735E-2,-1.3756001E-2,-2.3433028E-2,-1.3688189E-2,-7.2248797E-3,2.2294084E-3,-1.022078E-2,1.0342638E-3,2.948043E-3,1.7006664E-2,1.0410953E-2,2.2678902E-2,3.288397E-2,1.8792383E-2,-3.820603E-3,8.480506E-3,6.0281227E-3,2.1144565E-2,1.8860172E-2,3.0538991E-2,3.325987E-2,4.513746E-2,2.2540255E-2,3.6864832E-2,4.003465E-2,5.6978207E-2],"categories":[],"categories_nodes":[],"categories_segments":[],"categories_sizes":[],"default_left":[0,0,0,0,0,0,0,0,0,0,0,0,0,0,0,0,0,0,0,0,0,0,0,0,0,0,0,0,0,0,0,0,0,0,0,0,0,0,0,0,0,0,0,0,0,0,0,0,0,0,0,0,0,0,0,0,0,0,0,0,0,0,0,0,0,0,0,0,0,0,0,0,0,0,0,0,0,0,0,0,0,0,0,0,0,0,0,0,0,0,0,0,0,0,0,0,0,0,0,0,0],"id":4,"left_children":[1,3,5,7,9,11,13,15,17,19,21,23,25,27,29,-1,31,33,35,-1,37,39,41,43,45,47,49,51,53,55,-1,-1,-1,-1,-1,57,59,61,63,65,67,69,71,73,75,77,79,81,83,85,87,89,91,93,95,97,99,-1,-1,-1,-1,-1,-1,-1,-1,-1,-1,-1,-1,-1,-1,-1,-1,-1,-1,-1,-1,-1,-1,-1,-1,-1,-1,-1,-1,-1,-1,-1,-1,-1,-1,-1,-1,-1,-1,-1,-1,-1,-1,-1,-1],"loss_changes":[1.8866983E2,6.2793274E1,1.8080287E2,1.8730179E1,2.7659492E1,4.031359E1,4.253177E1,2.7407608E0,1.062709E1,3.8927593E0,1.0963852E1,1.2410328E1,7.65941E0,2.9191856E1,6.5238495E0,0E0,4.0058136E-1,1.3358421E0,2.0113792E0,0E0,5.254755E-1,2.4963434E0,2.4992247E0,6.5728493E0,5.4949617E0,2.2685242E0,2.1156063E0,5.9700394E0,4.437958E0,4.1419067E0,0E0,0E0,0E0,0E0,0E0,6.0450363E-1,8.686981E-1,6.7863464E-2,2.3112226E-2,1.4974952E-1,6.846081E-1,5.724448E-1,4.276514E-1,1.0857735E0,1.1501741E0,7.7024555E-1,1.0213741E0,1.1627932E0,7.0956266E-1,6.604214E-1,7.214546E-3,2.6399128E0,1.7336502E0,1.5419369E0,9.826355E-1,1.1671677E0,2.3482132E-1,0E0,0E0,0E0,0E0,0E0,0E0,0E0,0E0,0E0,0E0,0E0,0E0,0E0,0E0,0E0,0E0,0E0,0E0,0E0,0E0,0E0,0E0,0E0,0E0,0E0,0E0,0E0,0E0,0E0,0E0,0E0,0E0,0E0,0E0,0E0,0E0,0E0,0E0,0E0,0E0,0E0,0E0,0E0,0E0],"parents":[2147483647,0,0,1,1,2,2,3,3,4,4,5,5,6,6,7,7,8,8,9,9,10,10,11,11,12,12,13,13,14,14,16,16,17,17,18,18,20,20,21,21,22,22,23,23,24,24,25,25,26,26,27,27,28,28,29,29,35,35,36,36,37,37,38,38,39,39,40,40,41,41,42,42,43,43,44,44,45,45,46,46,47,47,48,48,49,49,50,50,51,51,52,52,53,53,54,54,55,55,56,56],"right_children":[2,4,6,8,10,12,14,16,18,20,22,24,26,28,30,-1,32,34,36,-1,38,40,42,44,46,48,50,52,54,56,-1,-1,-1,-1,-1,58,60,62,64,66,68,70,72,74,76,78,80,82,84,86,88,90,92,94,96,98,100,-1,-1,-1,-1,-1,-1,-1,-1,-1,-1,-1,-1,-1,-1,-1,-1,-1,-1,-1,-1,-1,-1,-1,-1,-1,-1,-1,-1,-1,-1,-1,-1,-1,-1,-1,-1,-1,-1,-1,-1,-1,-1,-1,-1],"split_conditions":[2.033772E-2,7.72605E7,5.608741E7,4.432E7,7.4582365E-3,5.4765474E-2,1.16584E8,8.035065E-3,1.1238645E-2,4.142502E-3,1.57285E8,3.439E7,3.0583258E7,4.1118354E-2,3.9386198E-2,-8.890806E-2,1.7873771E-2,7.0978906E-3,1.5705049E-2,-6.432872E-2,2.5758E8,1.367879E-2,1.2727773E-2,3.79415E-2,3.1493418E-2,8.5507244E-2,7.9338074E-2,7.512783E7,5.385253E-2,1.84652E8,6.161209E-2,-6.0256053E-2,-4.462452E-2,-6.4305626E-2,-4.3319352E-2,6.742E7,6.0645E7,9.398461E-1,1.9E1,1.0909E8,1.0909E8,8.593586E-3,1.84652E8,3.1056566E-2,2.507E7,4.452E7,3.7656903E-2,2.507E7,2.16E7,4.432E7,2.4691358E-1,2.9583875E-2,2.5963807E-2,6.78288E7,6.515E7,2.3794204E-2,2.2661816E-2,-3.4550685E-2,-2.2959078E-2,-2.5333408E-2,-1.4078947E-2,-1.43493535E-2,-3.2038808E-2,-5.936718E-3,1.9975663E-3,-2.1259854E-2,-1.2164612E-2,-5.869424E-3,5.1051346E-3,-4.3779905E-3,1.15785925E-2,1.9280218E-2,3.131028E-2,-3.764486E-2,-2.6744677E-2,-2.656735E-2,-1.3756001E-2,-2.3433028E-2,-1.3688189E-2,-7.2248797E-3,2.2294084E-3,-1.022078E-2,1.0342638E-3,2.948043E-3,1.7006664E-2,1.0410953E-2,2.2678902E-2,3.288397E-2,1.8792383E-2,-3.820603E-3,8.480506E-3,6.0281227E-3,2.1144565E-2,1.8860172E-2,3.0538991E-2,3.325987E-2,4.513746E-2,2.2540255E-2,3.6864832E-2,4.003465E-2,5.6978207E-2],"split_indices":[17,19,19,5,17,17,5,17,17,17,5,5,19,17,17,0,17,17,17,0,5,17,17,17,17,17,17,19,17,5,0,0,0,0,0,5,5,3,0,5,5,17,5,17,5,5,17,5,5,5,7,17,17,5,5,17,17,0,0,0,0,0,0,0,0,0,0,0,0,0,0,0,0,0,0,0,0,0,0,0,0,0,0,0,0,0,0,0,0,0,0,0,0,0,0,0,0,0,0,0,0],"split_type":[0,0,0,0,0,0,0,0,0,0,0,0,0,0,0,0,0,0,0,0,0,0,0,0,0,0,0,0,0,0,0,0,0,0,0,0,0,0,0,0,0,0,0,0,0,0,0,0,0,0,0,0,0,0,0,0,0,0,0,0,0,0,0,0,0,0,0,0,0,0,0,0,0,0,0,0,0,0,0,0,0,0,0,0,0,0,0,0,0,0,0,0,0,0,0,0,0,0,0,0,0],"sum_hessian":[1.917E3,5.02E2,1.415E3,3.06E2,1.96E2,6.82E2,7.33E2,8.3E1,2.23E2,4E1,1.56E2,4.62E2,2.2E2,5.14E2,2.19E2,1E1,7.3E1,6.1E1,1.62E2,1.2E1,2.8E1,8.6E1,7E1,2.45E2,2.17E2,1.33E2,8.7E1,2.73E2,2.41E2,1.7E2,4.9E1,4.9E1,2.4E1,1.8E1,4.3E1,8.3E1,7.9E1,2.6E1,2E0,3.1E1,5.5E1,2.3E1,4.7E1,1.28E2,1.17E2,9.9E1,1.18E2,9.6E1,3.7E1,5.9E1,2.8E1,1.74E2,9.9E1,1.29E2,1.12E2,1.2E2,5E1,5.7E1,2.6E1,3.6E1,4.3E1,3E0,2.3E1,1E0,1E0,1.7E1,1.4E1,2.6E1,2.9E1,8E0,1.5E1,2.1E1,2.6E1,7.2E1,5.6E1,2.3E1,9.4E1,3.6E1,6.3E1,4.6E1,7.2E1,3.6E1,6E1,1.6E1,2.1E1,4.3E1,1.6E1,2.3E1,5E0,9.5E1,7.9E1,2.7E1,7.2E1,6.8E1,6.1E1,6.4E1,4.8E1,2.4E1,9.6E1,1.6E1,3.4E1],"tree_param":{"num_deleted":"0","num_feature":"30","num_nodes":"101","size_leaf_vector":"1"}},{"base_weights":[-4.347124E-4,-5.2228826E-1,1.7026873E-1,-8.949836E-1,-2.2889386E-1,-1.8359959E-1,4.961842E-1,-7.669046E-2,-8.111773E-1,-6.833967E-1,-3.6688454E-2,-3.5556838E-1,1.3703208E-1,3.3993942E-1,8.28741E-1,-1.0762656E0,-6.528817E-1,-1.2377775E0,-5.5544627E-1,-2.6937366E-1,3.594005E-1,-5.2151775E-1,-2.0811267E-1,-5.4582045E-3,3.4791523E-1,6.8994485E-2,5.4245263E-1,7.004747E-1,1.0812777E0,-6.1317857E-2,-4.6660703E-2,-4.1226353E-2,-5.1202226E-1,-6.388934E-2,-1.794145E-2,-7.146057E-1,-2.658405E-1,-4.1522703E-1,-1.6134447E-1,1.4441997E-1,4.992823E-1,-7.53396E-1,-4.0917817E-1,-3.4528628E-1,-4.1612417E-2,-8.144821E-2,2.1265678E-1,2.4152267E-1,5.9272784E-1,-6.521526E-2,2.001916E-1,4.1787183E-1,7.196126E-1,5.172311E-1,8.4868824E-1,8.963219E-1,6.0763985E-2,-2.9268099E-2,-2.028026E-2,-3.73184E-2,-1.9981878E-2,-2.1637158E-2,-5.189623E-3,-2.4521256E-2,-1.3336179E-2,-1.3918777E-2,-2.7733163E-3,1.3920069E-3,1.1870054E-2,1.4795943E-2,2.728889E-2,-4.2236045E-2,-3.2157734E-2,-2.9994989E-2,-1.7492983E-2,-2.0802507E-2,-9.7151445E-3,-5.966018E-3,4.60373E-3,-1.163006E-2,-7.805298E-4,2.8093227E-3,1.6194973E-2,4.614317E-3,1.6119046E-2,1.8932309E-2,3.1605616E-2,-8.005737E-3,3.0349493E-3,2.8638875E-3,1.4256084E-2,1.6679341E-2,3.0027756E-2,3.2015856E-2,4.546304E-2,1.9171355E-2,3.0139392E-2,3.7259635E-2,5.0747402E-2,3.6047675E-2,5.1225778E-2],"categories":[],"categories_nodes":[],"categories_segments":[],"categories_sizes":[],"default_left":[0,0,0,0,0,0,0,0,0,0,0,0,0,0,0,0,0,0,0,0,0,0,0,0,0,0,0,0,0,0,0,0,0,0,0,0,0,0,0,0,0,0,0,0,0,0,0,0,0,0,0,0,0,0,0,0,0,0,0,0,0,0,0,0,0,0,0,0,0,0,0,0,0,0,0,0,0,0,0,0,0,0,0,0,0,0,0,0,0,0,0,0,0,0,0,0,0,0,0,0,0],"id":5,"left_children":[1,3,5,7,9,11,13,-1,15,17,19,21,23,25,27,29,31,33,35,37,39,41,43,45,47,49,51,53,55,-1,-1,-1,57,-1,-1,59,61,63,65,67,69,71,73,75,77,79,81,83,85,87,89,91,93,95,97,99,-1,-1,-1,-1,-1,-1,-1,-1,-1,-1,-1,-1,-1,-1,-1,-1,-1,-1,-1,-1,-1,-1,-1,-1,-1,-1,-1,-1,-1,-1,-1,-1,-1,-1,-1,-1,-1,-1,-1,-1,-1,-1,-1,-1,-1],"loss_changes":[1.7094858E2,5.151616E1,1.6685997E2,9.891617E0,2.3212128E1,3.831494E1,3.884436E1,0E0,7.1023254E0,4.91621E0,1.7423653E1,1.0951984E1,7.3037577E0,2.8165718E1,7.0166473E0,3.155594E-1,2.4549904E0,3.381729E-2,2.8521996E0,1.8080187E0,2.0329227E0,5.214138E0,5.489938E0,2.437206E0,2.4093742E0,3.904408E0,6.1880875E0,3.960823E0,8.686905E-1,0E0,0E0,0E0,2.9328537E-1,0E0,0E0,1.21896744E-1,6.3124084E-1,4.2755127E-1,8.519318E-1,3.0774266E-1,2.3562527E-1,1.4132309E-1,1.4305515E0,1.3294706E0,1.1537261E0,1.0810881E0,6.432359E-1,8.1493807E-1,5.1670074E-3,1.3241307E0,1.3430896E0,2.4942207E0,1.2223778E0,6.274624E-1,7.5790024E-1,9.317398E-2,0E0,0E0,0E0,0E0,0E0,0E0,0E0,0E0,0E0,0E0,0E0,0E0,0E0,0E0,0E0,0E0,0E0,0E0,0E0,0E0,0E0,0E0,0E0,0E0,0E0,0E0,0E0,0E0,0E0,0E0,0E0,0E0,0E0,0E0,0E0,0E0,0E0,0E0,0E0,0E0,0E0,0E0,0E0,0E0,0E0],"parents":[2147483647,0,0,1,1,2,2,3,3,4,4,5,5,6,6,8,8,9,9,10,10,11,11,12,12,13,13,14,14,15,15,16,16,17,17,18,18,19,19,20,20,21,21,22,22,23,23,24,24,25,25,26,26,27,27,28,28,32,32,35,35,36,36,37,37,38,38,39,39,40,40,41,41,42,42,43,43,44,44,45,45,46,46,47,47,48,48,49,49,50,50,51,51,52,52,53,53,54,54,55,55],"right_children":[2,4,6,8,10,12,14,-1,16,18,20,22,24,26,28,30,32,34,36,38,40,42,44,46,48,50,52,54,56,-1,-1,-1,58,-1,-1,60,62,64,66,68,70,72,74,76,78,80,82,84,86,88,90,92,94,96,98,100,-1,-1,-1,-1,-1,-1,-1,-1,-1,-1,-1,-1,-1,-1,-1,-1,-1,-1,-1,-1,-1,-1,-1,-1,-1,-1,-1,-1,-1,-1,-1,-1,-1,-1,-1,-1,-1,-1,-1,-1,-1,-1,-1,-1,-1],"split_conditions":[1.9729229E-2,6.584E7,5.608741E7,8.035065E-3,9.93495E-3,5.175185E-2,1.122E8,-7.669046E-2,4.432E7,4.142502E-3,1.2582E8,3.146E7,3.0583258E7,3.552318E-2,3.405171E-2,2.899E7,1.3287946E-2,2.5758E8,1.362E8,1.4518344E-2,1.724008E8,3.1056566E-2,3.324808E-2,8.5507244E-2,7.9338074E-2,6.78288E7,5.2928943E-2,1.59341E8,1.57285E8,-6.1317857E-2,-4.6660703E-2,-4.1226353E-2,5.864E7,-6.388934E-2,-1.794145E-2,1.3488109E8,6.5269736E-3,9.168E7,8.455E7,1.4304291E-2,1.1732852E-2,2.58E7,2.507E7,4.779E7,4.452E7,2.16E7,2.16E7,5.7591625E-2,3.439E7,2.7820282E-2,2.543036E-2,7.7519E7,7.4338816E-2,2.6448803E-2,2.223156E8,4.2872455E-2,6.0763985E-2,-2.9268099E-2,-2.028026E-2,-3.73184E-2,-1.9981878E-2,-2.1637158E-2,-5.189623E-3,-2.4521256E-2,-1.3336179E-2,-1.3918777E-2,-2.7733163E-3,1.3920069E-3,1.1870054E-2,1.4795943E-2,2.728889E-2,-4.2236045E-2,-3.2157734E-2,-2.9994989E-2,-1.7492983E-2,-2.0802507E-2,-9.7151445E-3,-5.966018E-3,4.60373E-3,-1.163006E-2,-7.805298E-4,2.8093227E-3,1.6194973E-2,4.614317E-3,1.6119046E-2,1.8932309E-2,3.1605616E-2,-8.005737E-3,3.0349493E-3,2.8638875E-3,1.4256084E-2,1.6679341E-2,3.0027756E-2,3.2015856E-2,4.546304E-2,1.9171355E-2,3.0139392E-2,3.7259635E-2,5.0747402E-2,3.6047675E-2,5.1225778E-2],"split_indices":[17,5,19,17,17,17,5,0,5,17,5,5,19,17,17,5,17,5,5,17,5,17,17,17,17,5,17,5,5,0,0,0,5,0,0,19,17,5,5,17,17,5,5,5,5,5,5,17,5,17,17,5,17,17,5,17,0,0,0,0,0,0,0,0,0,0,0,0,0,0,0,0,0,0,0,0,0,0,0,0,0,0,0,0,0,0,0,0,0,0,0,0,0,0,0,0,0,0,0,0,0],"split_type":[0,0,0,0,0,0,0,0,0,0,0,0,0,0,0,0,0,0,0,0,0,0,0,0,0,0,0,0,0,0,0,0,0,0,0,0,0,0,0,0,0,0,0,0,0,0,0,0,0,0,0,0,0,0,0,0,0,0,0,0,0,0,0,0,0,0,0,0,0,0,0,0,0,0,0,0,0,0,0,0,0,0,0,0,0,0,0,0,0,0,0,0,0,0,0,0,0,0,0,0,0],"sum_hessian":[1.917E3,4.72E2,1.445E3,2.07E2,2.65E2,6.93E2,7.52E2,2.2E1,1.85E2,7.8E1,1.87E2,4.51E2,2.42E2,5.13E2,2.39E2,6.7E1,1.18E2,1.3E1,6.5E1,1.18E2,6.9E1,2.11E2,2.4E2,1.45E2,9.7E1,2.2E2,2.93E2,1.61E2,7.8E1,2.9E1,3.8E1,5.1E1,6.7E1,1.2E1,1E0,4.1E1,2.4E1,4.9E1,6.9E1,2.8E1,4.1E1,6.7E1,1.44E2,1.31E2,1.09E2,1.08E2,3.7E1,6.9E1,2.8E1,1.09E2,1.11E2,1.74E2,1.19E2,7.4E1,8.7E1,3.6E1,4.2E1,3.7E1,3E1,3.6E1,5E0,1.1E1,1.3E1,3.1E1,1.8E1,3.2E1,3.7E1,1.3E1,1.5E1,9E0,3.2E1,3.3E1,3.4E1,3.2E1,1.12E2,8.8E1,4.3E1,6.9E1,4E1,3.2E1,7.6E1,1.6E1,2.1E1,2.5E1,4.4E1,6E0,2.2E1,6.2E1,4.7E1,4.2E1,6.9E1,1.21E2,5.3E1,8.7E1,3.2E1,3.1E1,4.3E1,5.7E1,3E1,1.8E1,1.8E1],"tree_param":{"num_deleted":"0","num_feature":"30","num_nodes":"101","size_leaf_vector":"1"}},{"base_weights":[-4.624316E-4,-4.7726062E-1,1.68909E-1,-7.330576E-1,-7.621016E-2,-1.226442E-1,5.287154E-1,-1.1035333E0,-5.908567E-1,-5.9098756E-1,1.4815834E-1,-3.002266E-1,1.3797227E-1,3.8827386E-1,8.4289765E-1,-8.138084E-2,-1.0107163E0,-8.159795E-1,-4.092851E-1,-5.858766E-2,-4.2138463E-1,-9.975649E-2,3.9751893E-1,-4.77284E-1,-1.2564825E-1,-3.3431806E-2,3.7056765E-1,9.356848E-2,5.3430593E-1,7.229085E-1,1.0664688E0,-5.5155274E-2,-4.097688E-2,-5.8282223E-2,-7.238855E-1,-2.8158644E-2,-3.3116084E-1,-5.2219796E-1,-1.6478214E-1,-2.814096E-1,-2.6563963E-2,2.514763E-1,5.034113E-1,-6.156878E-1,-3.2983723E-1,-2.5577146E-1,8.885384E-3,-1.8871997E-1,9.604976E-2,2.3637359E-1,5.446464E-1,-1.9447474E-2,2.4043992E-1,4.363672E-1,7.380439E-1,6.307656E-1,4.729913E-2,9.715942E-1,6.8926364E-2,-4.0573392E-2,-2.959334E-2,-2.0015992E-2,-1.1663369E-2,-3.0512476E-2,-1.9912468E-2,-1.711992E-2,-4.1635302E-4,-1.6547872E-2,-5.5319234E-3,-5.363749E-3,3.0833245E-3,4.554599E-3,1.8112438E-2,1.7308267E-2,2.843601E-2,-3.99815E-2,-2.7616221E-2,-2.066682E-2,-1.0320733E-2,-1.640206E-2,-7.4016503E-3,-4.508385E-3,5.3893933E-3,-1.8644836E-2,-5.6581614E-3,-2.5283245E-3,8.728349E-3,5.9792274E-3,1.7216679E-2,2.098756E-2,3.2753374E-2,-6.945707E-3,1.6764237E-3,6.8105827E-3,1.5408474E-2,1.7214095E-2,2.8156785E-2,3.0173479E-2,4.198379E-2,2.4635887E-2,3.449669E-2,4.0813424E-2,5.5373657E-2],"categories":[],"categories_nodes":[],"categories_segments":[],"categories_sizes":[],"default_left":[0,0,0,0,0,0,0,0,0,0,0,0,0,0,0,0,0,0,0,0,0,0,0,0,0,0,0,0,0,0,0,0,0,0,0,0,0,0,0,0,0,0,0,0,0,0,0,0,0,0,0,0,0,0,0,0,0,0,0,0,0,0,0,0,0,0,0,0,0,0,0,0,0,0,0,0,0,0,0,0,0,0,0,0,0,0,0,0,0,0,0,0,0,0,0,0,0,0,0,0,0,0,0],"id":6,"left_children":[1,3,5,7,9,11,13,15,17,19,21,23,25,27,29,-1,31,33,35,-1,37,39,41,43,45,47,49,51,53,55,57,-1,-1,-1,59,-1,61,63,65,67,69,71,73,75,77,79,81,83,85,87,89,91,93,95,97,99,-1,101,-1,-1,-1,-1,-1,-1,-1,-1,-1,-1,-1,-1,-1,-1,-1,-1,-1,-1,-1,-1,-1,-1,-1,-1,-1,-1,-1,-1,-1,-1,-1,-1,-1,-1,-1,-1,-1,-1,-1,-1,-1,-1,-1,-1,-1],"loss_changes":[1.549706E2,5.1545654E1,1.4860706E2,1.5521347E1,2.2841028E1,3.6279366E1,2.7647507E1,2.4410172E0,8.8222275E0,5.416212E0,8.570841E0,1.4344269E1,1.2690346E1,1.8886032E1,4.460129E0,0E0,4.0301514E-1,2.3442078E0,1.3283195E0,0E0,1.1556606E0,9.2322016E-1,9.4047546E-1,4.5109863E0,4.1336765E0,3.7178063E0,3.0249062E0,2.4447021E0,5.5443726E0,2.075409E0,6.1465454E-1,0E0,0E0,0E0,4.5628357E-1,0E0,4.8885727E-1,1.2804031E-1,4.1398323E-1,1.3261008E-1,3.6979488E-1,5.1775324E-1,2.0364094E-1,9.336586E-1,1.089529E0,8.8578653E-1,1.1559205E0,1.1267285E0,1.1715289E0,9.4228935E-1,5.249157E-1,5.362818E-1,4.0982103E-1,2.1524963E0,7.7892303E-1,4.360237E-1,0E0,2.356987E-1,0E0,0E0,0E0,0E0,0E0,0E0,0E0,0E0,0E0,0E0,0E0,0E0,0E0,0E0,0E0,0E0,0E0,0E0,0E0,0E0,0E0,0E0,0E0,0E0,0E0,0E0,0E0,0E0,0E0,0E0,0E0,0E0,0E0,0E0,0E0,0E0,0E0,0E0,0E0,0E0,0E0,0E0,0E0,0E0,0E0],"parents":[2147483647,0,0,1,1,2,2,3,3,4,4,5,5,6,6,7,7,8,8,9,9,10,10,11,11,12,12,13,13,14,14,16,16,17,17,18,18,20,20,21,21,22,22,23,23,24,24,25,25,26,26,27,27,28,28,29,29,30,30,34,34,36,36,37,37,38,38,39,39,40,40,41,41,42,42,43,43,44,44,45,45,46,46,47,47,48,48,49,49,50,50,51,51,52,52,53,53,54,54,55,55,57,57],"right_children":[2,4,6,8,10,12,14,16,18,20,22,24,26,28,30,-1,32,34,36,-1,38,40,42,44,46,48,50,52,54,56,58,-1,-1,-1,60,-1,62,64,66,68,70,72,74,76,78,80,82,84,86,88,90,92,94,96,98,100,-1,102,-1,-1,-1,-1,-1,-1,-1,-1,-1,-1,-1,-1,-1,-1,-1,-1,-1,-1,-1,-1,-1,-1,-1,-1,-1,-1,-1,-1,-1,-1,-1,-1,-1,-1,-1,-1,-1,-1,-1,-1,-1,-1,-1,-1,-1],"split_conditions":[2.033772E-2,7.72605E7,5.995706E7,4.432E7,9.93495E-3,4.7727916E-2,1.2547737E8,8.035065E-3,1.284945E-2,4.142502E-3,1.32912E8,3.616E7,3.317E7,3.0977655E-2,3.405171E-2,-8.138084E-2,1.7157353E-2,7.0978906E-3,5.618E7,-5.858766E-2,1.895132E8,1.367879E-2,1.7479E8,3.5682425E-2,3.1493418E-2,6.48663E-2,6.585895E-2,7.7519E7,5.385253E-2,2.2204E8,5.385253E-2,-5.5155274E-2,-4.097688E-2,-5.8282223E-2,6.515E7,-2.8158644E-2,1.7157353E-2,7.0978906E-3,5.881418E-3,1.122E8,1.0909E8,1.5705049E-2,1.3287946E-2,2.529E7,2.899E7,5.181553E7,4.779E7,2.507E7,2.16E7,4.432E7,8.1141576E-2,2.3794204E-2,2.465014E-2,7.72605E7,6.515E7,2.4922598E-2,4.729913E-2,1.64788E8,6.8926364E-2,-4.0573392E-2,-2.959334E-2,-2.0015992E-2,-1.1663369E-2,-3.0512476E-2,-1.9912468E-2,-1.711992E-2,-4.1635302E-4,-1.6547872E-2,-5.5319234E-3,-5.363749E-3,3.0833245E-3,4.554599E-3,1.8112438E-2,1.7308267E-2,2.843601E-2,-3.99815E-2,-2.7616221E-2,-2.066682E-2,-1.0320733E-2,-1.640206E-2,-7.4016503E-3,-4.508385E-3,5.3893933E-3,-1.8644836E-2,-5.6581614E-3,-2.5283245E-3,8.728349E-3,5.9792274E-3,1.7216679E-2,2.098756E-2,3.2753374E-2,-6.945707E-3,1.6764237E-3,6.8105827E-3,1.5408474E-2,1.7214095E-2,2.8156785E-2,3.0173479E-2,4.198379E-2,2.4635887E-2,3.449669E-2,4.0813424E-2,5.5373657E-2],"split_indices":[17,19,19,5,17,17,19,17,17,17,5,5,5,17,17,0,17,17,5,0,19,17,5,17,17,17,17,5,17,5,17,0,0,0,5,0,17,17,17,5,5,17,17,5,5,19,5,5,5,5,17,17,17,19,5,17,0,5,0,0,0,0,0,0,0,0,0,0,0,0,0,0,0,0,0,0,0,0,0,0,0,0,0,0,0,0,0,0,0,0,0,0,0,0,0,0,0,0,0,0,0,0,0],"split_type":[0,0,0,0,0,0,0,0,0,0,0,0,0,0,0,0,0,0,0,0,0,0,0,0,0,0,0,0,0,0,0,0,0,0,0,0,0,0,0,0,0,0,0,0,0,0,0,0,0,0,0,0,0,0,0,0,0,0,0,0,0,0,0,0,0,0,0,0,0,0,0,0,0,0,0,0,0,0,0,0,0,0,0,0,0,0,0,0,0,0,0,0,0,0,0,0,0,0,0,0,0,0,0],"sum_hessian":[1.917E3,5.02E2,1.415E3,3.06E2,1.96E2,7.82E2,6.33E2,8.3E1,2.23E2,5.9E1,1.37E2,4.65E2,3.17E2,4.39E2,1.94E2,1E1,7.3E1,9.8E1,1.25E2,1.2E1,4.7E1,6.9E1,6.8E1,2.3E2,2.35E2,1.83E2,1.34E2,1.46E2,2.93E2,1.29E2,6.5E1,4.6E1,2.7E1,1.8E1,8E1,4E1,8.5E1,3.3E1,1.4E1,1.9E1,5E1,3E1,3.8E1,1.17E2,1.13E2,1.19E2,1.16E2,8.3E1,1E2,7.7E1,5.7E1,8.3E1,6.3E1,2E2,9.3E1,9.4E1,3.5E1,5.3E1,1.2E1,4.5E1,3.5E1,4.8E1,3.7E1,1.7E1,1.6E1,6E0,8E0,1.4E1,5E0,2.6E1,2.4E1,1.3E1,1.7E1,1.3E1,2.5E1,2.7E1,9E1,6.6E1,4.7E1,7E1,4.9E1,5.8E1,5.8E1,2.3E1,6E1,3.5E1,6.5E1,3.8E1,3.9E1,2.9E1,2.8E1,2.5E1,5.8E1,2.6E1,3.7E1,1.18E2,8.2E1,4.3E1,5E1,3.1E1,6.3E1,2.8E1,2.5E1],"tree_param":{"num_deleted":"0","num_feature":"30","num_nodes":"103","size_leaf_vector":"1"}},{"base_weights":[-4.940048E-4,-4.542889E-1,1.6070609E-1,-6.975965E-1,-7.281827E-2,-1.1659195E-1,5.0292003E-1,-1.0820935E0,-5.7302225E-1,-7.062197E-1,9.30561E-2,-2.854759E-1,1.3125874E-1,3.6916584E-1,8.0214536E-1,-6.5803446E-2,-8.828072E-1,-7.8661907E-1,-3.9907497E-1,-1.2531675E0,-5.356515E-1,-1.1398243E-1,3.4544054E-1,-4.5384637E-1,-1.1946299E-1,-3.185846E-2,3.5260916E-1,1.8366815E-1,5.828609E-1,7.179254E-1,5.5048663E-2,-4.6812903E-2,-3.0639688E-2,-4.961008E-2,-6.6319007E-1,-5.4763675E-1,-3.149713E-1,-6.648362E-2,-1.6028214E-2,-2.990499E-2,-2.1825804E-1,-3.0656952E-1,-1.897267E-3,1.06749535E-1,4.5758936E-1,-5.85476E-1,-3.1361705E-1,-2.962175E-1,-2.8636081E-2,-1.7957318E-1,9.130882E-2,2.2485213E-1,5.183409E-1,7.575801E-2,3.5907963E-1,5.0669944E-1,7.7038765E-1,6.3403887E-1,4.888025E-2,-4.0414494E-2,-2.7396103E-2,-3.009582E-2,-2.1941138E-2,-1.9035632E-2,-1.1095544E-2,-1.3427647E-2,2.0877838E-3,-1.8070867E-2,-9.2519205E-3,-5.105508E-3,4.417879E-3,-1.0305201E-3,1.2956976E-2,1.8536156E-2,3.0407583E-2,-3.414885E-2,-2.3992106E-2,-1.9648891E-2,-9.815451E-3,-1.7666003E-2,-8.877569E-3,-6.663814E-3,2.0529164E-3,-1.7751416E-2,-5.379892E-3,2.2932815E-3,1.7439604E-2,5.6879167E-3,1.6377365E-2,1.9973163E-2,3.1172195E-2,-7.204832E-4,9.882077E-3,6.354857E-3,2.0568095E-2,2.2039928E-2,3.36806E-2,3.2888617E-2,4.3557692E-2,2.4214186E-2,3.438066E-2],"categories":[],"categories_nodes":[],"categories_segments":[],"categories_sizes":[],"default_left":[0,0,0,0,0,0,0,0,0,0,0,0,0,0,0,0,0,0,0,0,0,0,0,0,0,0,0,0,0,0,0,0,0,0,0,0,0,0,0,0,0,0,0,0,0,0,0,0,0,0,0,0,0,0,0,0,0,0,0,0,0,0,0,0,0,0,0,0,0,0,0,0,0,0,0,0,0,0,0,0,0,0,0,0,0,0,0,0,0,0,0,0,0,0,0,0,0,0,0,0,0],"id":7,"left_children":[1,3,5,7,9,11,13,15,17,19,21,23,25,27,29,-1,31,33,35,37,39,41,43,45,47,49,51,53,55,57,-1,-1,-1,-1,59,61,63,-1,-1,-1,65,67,69,71,73,75,77,79,81,83,85,87,89,91,93,95,97,99,-1,-1,-1,-1,-1,-1,-1,-1,-1,-1,-1,-1,-1,-1,-1,-1,-1,-1,-1,-1,-1,-1,-1,-1,-1,-1,-1,-1,-1,-1,-1,-1,-1,-1,-1,-1,-1,-1,-1,-1,-1,-1,-1],"loss_changes":[1.4037811E2,4.6634995E1,1.3443033E2,1.4084747E1,2.0763535E1,3.2812286E1,2.5078232E1,2.288643E0,8.380257E0,3.1537075E0,8.243143E0,1.2971264E1,1.149296E1,1.7334515E1,4.1172104E0,0E0,4.6863556E-2,1.980957E0,1.4643021E0,2.1589184E-1,5.2354145E-1,1.8774139E0,1.8517456E0,4.0802574E0,3.780278E0,3.3640232E0,2.7418575E0,4.4588943E0,2.5232391E0,2.7566223E0,0E0,0E0,0E0,0E0,6.9444275E-1,7.5588226E-3,4.416561E-1,0E0,0E0,0E0,1.0275516E-1,1.4642668E-1,5.1552534E-1,4.7114196E-1,4.0232563E-1,8.876076E-1,9.841547E-1,4.793582E-1,1.1504475E0,1.022589E0,1.1657892E0,8.526249E-1,4.756317E-1,1.6293612E0,1.0392876E0,1.3310242E0,7.380676E-2,6.2976456E-1,0E0,0E0,0E0,0E0,0E0,0E0,0E0,0E0,0E0,0E0,0E0,0E0,0E0,0E0,0E0,0E0,0E0,0E0,0E0,0E0,0E0,0E0,0E0,0E0,0E0,0E0,0E0,0E0,0E0,0E0,0E0,0E0,0E0,0E0,0E0,0E0,0E0,0E0,0E0,0E0,0E0,0E0,0E0],"parents":[2147483647,0,0,1,1,2,2,3,3,4,4,5,5,6,6,7,7,8,8,9,9,10,10,11,11,12,12,13,13,14,14,16,16,17,17,18,18,19,19,20,20,21,21,22,22,23,23,24,24,25,25,26,26,27,27,28,28,29,29,34,34,35,35,36,36,40,40,41,41,42,42,43,43,44,44,45,45,46,46,47,47,48,48,49,49,50,50,51,51,52,52,53,53,54,54,55,55,56,56,57,57],"right_children":[2,4,6,8,10,12,14,16,18,20,22,24,26,28,30,-1,32,34,36,38,40,42,44,46,48,50,52,54,56,58,-1,-1,-1,-1,60,62,64,-1,-1,-1,66,68,70,72,74,76,78,80,82,84,86,88,90,92,94,96,98,100,-1,-1,-1,-1,-1,-1,-1,-1,-1,-1,-1,-1,-1,-1,-1,-1,-1,-1,-1,-1,-1,-1,-1,-1,-1,-1,-1,-1,-1,-1,-1,-1,-1,-1,-1,-1,-1,-1,-1,-1,-1,-1,-1],"split_conditions":[2.033772E-2,7.72605E7,5.995706E7,3.9881204E7,7.4582365E-3,4.7727916E-2,1.2547737E8,1.5127133E-2,1.284945E-2,2.9411765E-3,1.57285E8,3.616E7,3.317E7,4.0252544E-2,4.0252544E-2,-6.5803446E-2,3.146E7,9.36895E-3,5.618E7,2.5758E8,2.2204E8,1.367879E-2,1.2727773E-2,3.5682425E-2,2.769594E-2,6.48663E-2,6.585895E-2,8.61432E7,6.133507E-2,2.223156E8,5.5048663E-2,-4.6812903E-2,-3.0639688E-2,-4.961008E-2,5.95E7,1.8148966E-2,1.7157353E-2,-6.648362E-2,-1.6028214E-2,-2.990499E-2,2.2E1,1.1881532E-2,1.0909E8,2.223156E8,2.223156E8,2.899E7,2.899E7,5.173E7,4.534E7,2.507E7,1.08283564E-1,4.432E7,8.1141576E-2,2.9752588E-2,2.2661816E-2,8.61432E7,6.78288E7,2.4922598E-2,4.888025E-2,-4.0414494E-2,-2.7396103E-2,-3.009582E-2,-2.1941138E-2,-1.9035632E-2,-1.1095544E-2,-1.3427647E-2,2.0877838E-3,-1.8070867E-2,-9.2519205E-3,-5.105508E-3,4.417879E-3,-1.0305201E-3,1.2956976E-2,1.8536156E-2,3.0407583E-2,-3.414885E-2,-2.3992106E-2,-1.9648891E-2,-9.815451E-3,-1.7666003E-2,-8.877569E-3,-6.663814E-3,2.0529164E-3,-1.7751416E-2,-5.379892E-3,2.2932815E-3,1.7439604E-2,5.6879167E-3,1.6377365E-2,1.9973163E-2,3.1172195E-2,-7.204832E-4,9.882077E-3,6.354857E-3,2.0568095E-2,2.2039928E-2,3.36806E-2,3.2888617E-2,4.3557692E-2,2.4214186E-2,3.438066E-2],"split_indices":[17,19,19,19,17,17,19,17,17,17,5,5,5,17,17,0,5,17,5,5,5,17,17,17,17,17,17,5,17,5,0,0,0,0,5,17,17,0,0,0,0,17,5,5,5,5,5,5,5,5,17,5,17,17,17,5,5,17,0,0,0,0,0,0,0,0,0,0,0,0,0,0,0,0,0,0,0,0,0,0,0,0,0,0,0,0,0,0,0,0,0,0,0,0,0,0,0,0,0,0,0],"split_type":[0,0,0,0,0,0,0,0,0,0,0,0,0,0,0,0,0,0,0,0,0,0,0,0,0,0,0,0,0,0,0,0,0,0,0,0,0,0,0,0,0,0,0,0,0,0,0,0,0,0,0,0,0,0,0,0,0,0,0,0,0,0,0,0,0,0,0,0,0,0,0,0,0,0,0,0,0,0,0,0,0,0,0,0,0,0,0,0,0,0,0,0,0,0,0,0,0,0,0,0,0],"sum_hessian":[1.917E3,5.02E2,1.415E3,3.06E2,1.96E2,7.82E2,6.33E2,7.3E1,2.33E2,4E1,1.56E2,4.65E2,3.17E2,4.39E2,1.94E2,3.1E1,4.2E1,1.03E2,1.3E2,8E0,3.2E1,8.6E1,7E1,2.3E2,2.35E2,1.83E2,1.34E2,2.36E2,2.03E2,1.54E2,4E1,3.3E1,9E0,3.6E1,6.7E1,4.5E1,8.5E1,7E0,1E0,2.6E1,6E0,3.1E1,5.5E1,2.3E1,4.7E1,1.17E2,1.13E2,7.9E1,1.56E2,8.3E1,1E2,7.7E1,5.7E1,1.47E2,8.9E1,1.47E2,5.6E1,1.19E2,3.5E1,2.7E1,4E1,2.7E1,1.8E1,4.8E1,3.7E1,5E0,1E0,2E1,1.1E1,2.6E1,2.9E1,1.3E1,1E1,3.2E1,1.5E1,5.8E1,5.9E1,6.6E1,4.7E1,5.2E1,2.7E1,6.2E1,9.4E1,2.3E1,6E1,8.6E1,1.4E1,3.8E1,3.9E1,2.9E1,2.8E1,8.5E1,6.2E1,1.7E1,7.2E1,1.08E2,3.9E1,3E1,2.6E1,3.4E1,8.5E1],"tree_param":{"num_deleted":"0","num_feature":"30","num_nodes":"101","size_leaf_vector":"1"}},{"base_weights":[-5.485447E-4,-4.5061773E-1,1.4667363E-1,-7.730626E-1,-1.9678637E-1,-1.803015E-1,4.087226E-1,-6.70469E-2,-6.9868517E-1,-5.914913E-1,-2.98796E-2,-3.3527118E-1,9.265934E-2,2.775456E-1,7.1528554E-1,-9.2542744E-1,-5.6324685E-1,-1.0808777E0,-4.7872004E-1,-2.1065563E-1,3.4994355E-1,-4.8622087E-1,-2.3908037E-1,-1.7048724E-2,2.4508123E-1,1.0749493E-1,5.4098403E-1,6.031707E-1,9.361377E-1,-5.317968E-2,-7.954168E-1,-3.548135E-2,-4.430261E-1,-5.5796873E-2,-1.5627503E-2,-6.167858E-1,-2.2762078E-1,-3.169639E-1,-8.869465E-2,1.9884436E-1,4.640857E-1,-6.544446E-1,-3.5659662E-1,-3.5997063E-1,-9.548169E-2,-8.0641374E-2,2.0299844E-1,1.6606963E-1,4.273478E-1,3.7368247E-3,2.604926E-1,4.7132683E-1,7.331323E-1,4.4134834E-1,7.342332E-1,8.5605735E-1,6.2339615E-2,-4.3110467E-2,-2.9775394E-2,-2.7335051E-2,-1.9077882E-2,-3.323004E-2,-2.108081E-2,-1.8554395E-2,-4.4195177E-3,-1.9726975E-2,-9.227571E-3,-8.731771E-3,6.07923E-4,4.322313E-3,1.5253387E-2,1.5718674E-2,2.7089724E-2,-3.6746763E-2,-2.7877763E-2,-2.198051E-2,-1.3201313E-2,-2.647217E-2,-1.5270653E-2,-7.4282796E-3,9.393291E-4,-9.459374E-3,-3.7966584E-4,6.8740533E-3,2.2653699E-2,4.7408445E-3,1.2895636E-2,1.0296131E-2,2.3244899E-2,-5.809424E-3,5.8985013E-3,4.9782037E-3,1.8077908E-2,2.0130534E-2,3.04471E-2,3.0963704E-2,4.1085504E-2,1.6442478E-2,2.565675E-2,3.2344513E-2,4.369821E-2,3.3834927E-2,4.852043E-2],"categories":[],"categories_nodes":[],"categories_segments":[],"categories_sizes":[],"default_left":[0,0,0,0,0,0,0,0,0,0,0,0,0,0,0,0,0,0,0,0,0,0,0,0,0,0,0,0,0,0,0,0,0,0,0,0,0,0,0,0,0,0,0,0,0,0,0,0,0,0,0,0,0,0,0,0,0,0,0,0,0,0,0,0,0,0,0,0,0,0,0,0,0,0,0,0,0,0,0,0,0,0,0,0,0,0,0,0,0,0,0,0,0,0,0,0,0,0,0,0,0,0,0],"id":8,"left_children":[1,3,5,7,9,11,13,-1,15,17,19,21,23,25,27,29,31,33,35,37,39,41,43,45,47,49,51,53,55,-1,57,-1,59,-1,-1,61,63,65,67,69,71,73,75,77,79,81,83,85,87,89,91,93,95,97,99,101,-1,-1,-1,-1,-1,-1,-1,-1,-1,-1,-1,-1,-1,-1,-1,-1,-1,-1,-1,-1,-1,-1,-1,-1,-1,-1,-1,-1,-1,-1,-1,-1,-1,-1,-1,-1,-1,-1,-1,-1,-1,-1,-1,-1,-1,-1,-1],"loss_changes":[1.271531E2,3.856131E1,1.2397204E2,7.848419E0,1.7506119E1,2.7272686E1,3.2093307E1,0E0,5.1907425E0,3.8424702E0,1.2982347E1,5.8514633E0,3.9171052E0,2.5207851E1,5.377945E0,3.7548828E-1,1.7797699E0,2.8337479E-2,2.147709E0,1.6314664E0,9.597726E-1,3.2337646E0,4.357629E0,1.9334632E0,1.3403459E0,5.459939E0,2.6124268E0,3.1117783E0,8.9797974E-1,0E0,7.291794E-3,0E0,2.2474861E-1,0E0,0E0,1.11738205E-1,4.6657395E-1,6.256814E-1,5.3083426E-1,3.0792868E-1,2.2522879E-1,1.2054443E-1,5.909147E-1,1.1050053E0,7.124903E-1,8.4697515E-1,4.45624E-1,4.336306E-1,1.4538908E-1,2.8357937E0,2.2247448E0,1.315136E0,6.599808E-2,4.3694878E-1,5.086403E-1,6.9698334E-1,0E0,0E0,0E0,0E0,0E0,0E0,0E0,0E0,0E0,0E0,0E0,0E0,0E0,0E0,0E0,0E0,0E0,0E0,0E0,0E0,0E0,0E0,0E0,0E0,0E0,0E0,0E0,0E0,0E0,0E0,0E0,0E0,0E0,0E0,0E0,0E0,0E0,0E0,0E0,0E0,0E0,0E0,0E0,0E0,0E0,0E0,0E0],"parents":[2147483647,0,0,1,1,2,2,3,3,4,4,5,5,6,6,8,8,9,9,10,10,11,11,12,12,13,13,14,14,15,15,16,16,17,17,18,18,19,19,20,20,21,21,22,22,23,23,24,24,25,25,26,26,27,27,28,28,30,30,32,32,35,35,36,36,37,37,38,38,39,39,40,40,41,41,42,42,43,43,44,44,45,45,46,46,47,47,48,48,49,49,50,50,51,51,52,52,53,53,54,54,55,55],"right_children":[2,4,6,8,10,12,14,-1,16,18,20,22,24,26,28,30,32,34,36,38,40,42,44,46,48,50,52,54,56,-1,58,-1,60,-1,-1,62,64,66,68,70,72,74,76,78,80,82,84,86,88,90,92,94,96,98,100,102,-1,-1,-1,-1,-1,-1,-1,-1,-1,-1,-1,-1,-1,-1,-1,-1,-1,-1,-1,-1,-1,-1,-1,-1,-1,-1,-1,-1,-1,-1,-1,-1,-1,-1,-1,-1,-1,-1,-1,-1,-1,-1,-1,-1,-1,-1,-1],"split_conditions":[1.9729229E-2,6.584E7,5.181553E7,8.035065E-3,9.93495E-3,5.1470567E-2,1.122E8,-6.70469E-2,4.432E7,4.142502E-3,1.32912E8,3.1056566E-2,2.8373954E7,4.3602213E-2,3.405171E-2,2.899E7,1.3287946E-2,2.5758E8,1.362E8,9.168E7,1.84652E8,3.146E7,3.019E7,9.2391305E-2,7.9338074E-2,7.2358E7,6.8318315E-2,1.59341E8,2.2204E8,-5.317968E-2,1.7873771E-2,-3.548135E-2,5.173E7,-5.5796873E-2,-1.5627503E-2,1.16584E8,6.5269736E-3,1.6427744E-2,1.5413447E-2,1.5705049E-2,1.3287946E-2,2.58E7,2.4770098E-2,2.507E7,4.24542E-2,2.507E7,1.2930012E-1,3.777E7,2.798E7,2.9583875E-2,2.7820282E-2,7.2358E7,8.1141576E-2,2.6448803E-2,2.223156E8,4.2234913E-2,6.2339615E-2,-4.3110467E-2,-2.9775394E-2,-2.7335051E-2,-1.9077882E-2,-3.323004E-2,-2.108081E-2,-1.8554395E-2,-4.4195177E-3,-1.9726975E-2,-9.227571E-3,-8.731771E-3,6.07923E-4,4.322313E-3,1.5253387E-2,1.5718674E-2,2.7089724E-2,-3.6746763E-2,-2.7877763E-2,-2.198051E-2,-1.3201313E-2,-2.647217E-2,-1.5270653E-2,-7.4282796E-3,9.393291E-4,-9.459374E-3,-3.7966584E-4,6.8740533E-3,2.2653699E-2,4.7408445E-3,1.2895636E-2,1.0296131E-2,2.3244899E-2,-5.809424E-3,5.8985013E-3,4.9782037E-3,1.8077908E-2,2.0130534E-2,3.04471E-2,3.0963704E-2,4.1085504E-2,1.6442478E-2,2.565675E-2,3.2344513E-2,4.369821E-2,3.3834927E-2,4.852043E-2],"split_indices":[17,5,19,17,17,17,5,0,5,17,5,17,19,17,17,5,17,5,5,5,5,5,5,17,17,5,17,5,5,0,17,0,5,0,0,5,17,17,17,17,17,5,17,5,17,5,17,5,5,17,17,5,17,17,5,17,0,0,0,0,0,0,0,0,0,0,0,0,0,0,0,0,0,0,0,0,0,0,0,0,0,0,0,0,0,0,0,0,0,0,0,0,0,0,0,0,0,0,0,0,0,0,0],"split_type":[0,0,0,0,0,0,0,0,0,0,0,0,0,0,0,0,0,0,0,0,0,0,0,0,0,0,0,0,0,0,0,0,0,0,0,0,0,0,0,0,0,0,0,0,0,0,0,0,0,0,0,0,0,0,0,0,0,0,0,0,0,0,0,0,0,0,0,0,0,0,0,0,0,0,0,0,0,0,0,0,0,0,0,0,0,0,0,0,0,0,0,0,0,0,0,0,0,0,0,0,0,0,0],"sum_hessian":[1.917E3,4.72E2,1.445E3,2.07E2,2.65E2,6.43E2,8.02E2,2.2E1,1.85E2,7.8E1,1.87E2,4.1E2,2.33E2,5.63E2,2.39E2,6.7E1,1.18E2,1.3E1,6.5E1,1.27E2,6E1,1.58E2,2.52E2,1.36E2,9.7E1,3.43E2,2.2E2,1.61E2,7.8E1,2.9E1,3.8E1,5.1E1,6.7E1,1.2E1,1E0,4.1E1,2.4E1,6.7E1,6E1,2.7E1,3.3E1,6.7E1,9.1E1,1.36E2,1.16E2,1.06E2,3E1,6.9E1,2.8E1,2.05E2,1.38E2,1.64E2,5.6E1,7.4E1,8.7E1,6.5E1,1.3E1,2.6E1,1.2E1,2.2E1,4.5E1,3.1E1,1E1,1.1E1,1.3E1,4.1E1,2.6E1,3.2E1,2.8E1,1.4E1,1.3E1,1.3E1,2E1,3.3E1,3.4E1,4.6E1,4.5E1,3.1E1,1.05E2,7.9E1,3.7E1,4.2E1,6.4E1,2.5E1,5E0,4E1,2.9E1,5E0,2.3E1,1E2,1.05E2,5.4E1,8.4E1,1.12E2,5.2E1,2.8E1,2.8E1,3.1E1,4.3E1,5.7E1,3E1,2.8E1,3.7E1],"tree_param":{"num_deleted":"0","num_feature":"30","num_nodes":"103","size_leaf_vector":"1"}},{"base_weights":[-5.559722E-4,-4.1186574E-1,1.4555234E-1,-6.77867E-1,-1.2446574E-1,-1.0571778E-1,4.5564532E-1,-9.8258704E-1,-5.5431837E-1,-5.463337E-1,5.2853774E-2,-2.6833808E-1,1.0585559E-1,3.3456096E-1,7.2652465E-1,-1.1989876E0,-7.986939E-1,-7.4853927E-1,-3.9701033E-1,-1.0319357E0,-4.2184615E-1,-1.4132574E-1,3.4476414E-1,-4.2609915E-1,-1.14974156E-1,-1.7900546E-3,3.6166495E-1,1.6603266E-1,5.287112E-1,6.2163955E-1,9.2210865E-1,-6.0745604E-2,-1.7633175E-2,-4.2321347E-2,-2.7826626E-2,-5.228098E-2,-6.784298E-1,-2.455713E-2,-3.222851E-1,-5.3221643E-2,-1.5236807E-2,-5.559988E-1,-2.1715866E-1,-3.0324847E-1,-5.4796137E-2,2.3058407E-1,4.4909385E-1,-5.745886E-1,-3.3234385E-1,-2.0913725E-1,2.444967E-2,-6.6667035E-2,2.412157E-1,2.681475E-1,5.641835E-1,6.816938E-2,3.2511857E-1,4.5866564E-1,7.013082E-1,5.300586E-1,7.885918E-1,8.345101E-1,6.0752403E-2,-3.794612E-2,-2.8544052E-2,-1.8539878E-2,-1.2714758E-2,-2.9568762E-2,-1.6500542E-2,-1.770397E-2,-4.214335E-3,-1.7330265E-2,-5.4086926E-3,-5.731045E-3,3.1075578E-3,4.120617E-3,1.6272042E-2,1.4988889E-2,2.6184991E-2,-3.867493E-2,-2.6329909E-2,-2.6697531E-2,-1.44376755E-2,-1.258346E-2,-2.9165547E-3,-3.3636037E-3,5.315654E-3,-9.725776E-3,1.2624272E-3,2.1470464E-3,1.6531436E-2,8.416184E-3,1.665329E-2,2.3700017E-2,3.425309E-2,-2.5385646E-3,7.2692074E-3,5.6604412E-3,1.864583E-2,1.9912917E-2,3.0590445E-2,2.9843127E-2,3.9762646E-2,1.7214192E-2,2.8353715E-2,3.0465955E-2,4.34636E-2,3.474724E-2,4.790413E-2],"categories":[],"categories_nodes":[],"categories_segments":[],"categories_sizes":[],"default_left":[0,0,0,0,0,0,0,0,0,0,0,0,0,0,0,0,0,0,0,0,0,0,0,0,0,0,0,0,0,0,0,0,0,0,0,0,0,0,0,0,0,0,0,0,0,0,0,0,0,0,0,0,0,0,0,0,0,0,0,0,0,0,0,0,0,0,0,0,0,0,0,0,0,0,0,0,0,0,0,0,0,0,0,0,0,0,0,0,0,0,0,0,0,0,0,0,0,0,0,0,0,0,0,0,0,0,0,0,0],"id":9,"left_children":[1,3,5,7,9,11,13,15,17,19,21,23,25,27,29,31,33,35,37,39,41,43,45,47,49,51,53,55,57,59,61,-1,-1,-1,-1,-1,63,-1,65,-1,-1,67,69,71,73,75,77,79,81,83,85,87,89,91,93,95,97,99,101,103,105,107,-1,-1,-1,-1,-1,-1,-1,-1,-1,-1,-1,-1,-1,-1,-1,-1,-1,-1,-1,-1,-1,-1,-1,-1,-1,-1,-1,-1,-1,-1,-1,-1,-1,-1,-1,-1,-1,-1,-1,-1,-1,-1,-1,-1,-1,-1,-1],"loss_changes":[1.1532364E2,3.836936E1,1.10378784E2,9.281403E0,1.820659E1,2.6968403E1,2.0551666E1,1.987175E0,5.4466896E0,3.917181E0,9.7982025E0,1.0669329E1,9.390684E0,1.4308933E1,3.426979E0,2.822876E-3,2.5976181E-2,1.0193634E0,5.8732224E-1,6.4764023E-3,1.4993639E0,1.4405384E0,7.184E-1,2.8439636E0,2.9721725E0,3.815562E0,1.7615557E0,3.6676116E0,2.1446228E0,1.5696487E0,6.796608E-1,0E0,0E0,0E0,0E0,0E0,1.7272568E-1,0E0,1.1020565E-1,0E0,0E0,8.46529E-2,4.2497897E-1,2.669878E-1,4.8987153E-1,4.651078E-1,2.3290157E-1,3.8497734E-1,1.0410023E0,8.5122013E-1,6.9794816E-1,2.249403E0,8.899481E-1,4.0404463E-1,1.3216972E-2,1.36661E0,8.6938E-1,1.1254883E0,8.463287E-2,4.030285E-1,1.0674286E-1,2.654953E-1,0E0,0E0,0E0,0E0,0E0,0E0,0E0,0E0,0E0,0E0,0E0,0E0,0E0,0E0,0E0,0E0,0E0,0E0,0E0,0E0,0E0,0E0,0E0,0E0,0E0,0E0,0E0,0E0,0E0,0E0,0E0,0E0,0E0,0E0,0E0,0E0,0E0,0E0,0E0,0E0,0E0,0E0,0E0,0E0,0E0,0E0,0E0],"parents":[2147483647,0,0,1,1,2,2,3,3,4,4,5,5,6,6,7,7,8,8,9,9,10,10,11,11,12,12,13,13,14,14,15,15,16,16,17,17,18,18,19,19,20,20,21,21,22,22,23,23,24,24,25,25,26,26,27,27,28,28,29,29,30,30,36,36,38,38,41,41,42,42,43,43,44,44,45,45,46,46,47,47,48,48,49,49,50,50,51,51,52,52,53,53,54,54,55,55,56,56,57,57,58,58,59,59,60,60,61,61],"right_children":[2,4,6,8,10,12,14,16,18,20,22,24,26,28,30,32,34,36,38,40,42,44,46,48,50,52,54,56,58,60,62,-1,-1,-1,-1,-1,64,-1,66,-1,-1,68,70,72,74,76,78,80,82,84,86,88,90,92,94,96,98,100,102,104,106,108,-1,-1,-1,-1,-1,-1,-1,-1,-1,-1,-1,-1,-1,-1,-1,-1,-1,-1,-1,-1,-1,-1,-1,-1,-1,-1,-1,-1,-1,-1,-1,-1,-1,-1,-1,-1,-1,-1,-1,-1,-1,-1,-1,-1,-1,-1,-1],"split_conditions":[2.033772E-2,7.2358E7,5.995706E7,3.9881204E7,9.93495E-3,4.646078E-2,1.2547737E8,1.5127133E-2,1.3287946E-2,4.142502E-3,1.32912E8,3.616E7,3.777E7,4.0252544E-2,3.405171E-2,1.25E0,3.146E7,7.0978906E-3,5.618E7,2.5758E8,1.362E8,1.3830157E-2,1.84652E8,3.1056566E-2,3.3042833E-2,8.5507244E-2,7.036536E-2,8.61432E7,6.133507E-2,1.84652E8,5.385253E-2,-6.0745604E-2,-1.7633175E-2,-4.2321347E-2,-2.7826626E-2,-5.228098E-2,6.0645E7,-2.455713E-2,1.686046E-2,-5.3221643E-2,-1.5236807E-2,9.131313E-3,6.5269736E-3,1.0909E8,1.0909E8,1.5705049E-2,1.3287946E-2,2.507E7,2.507E7,5.4301E7,4.779E7,2.4882802E7,2.16E7,4.53E7,9.40609E-2,2.6856024E-2,2.2661816E-2,8.61432E7,6.78288E7,2.32917E-2,2.2661816E-2,1.64788E8,6.0752403E-2,-3.794612E-2,-2.8544052E-2,-1.8539878E-2,-1.2714758E-2,-2.9568762E-2,-1.6500542E-2,-1.770397E-2,-4.214335E-3,-1.7330265E-2,-5.4086926E-3,-5.731045E-3,3.1075578E-3,4.120617E-3,1.6272042E-2,1.4988889E-2,2.6184991E-2,-3.867493E-2,-2.6329909E-2,-2.6697531E-2,-1.44376755E-2,-1.258346E-2,-2.9165547E-3,-3.3636037E-3,5.315654E-3,-9.725776E-3,1.2624272E-3,2.1470464E-3,1.6531436E-2,8.416184E-3,1.665329E-2,2.3700017E-2,3.425309E-2,-2.5385646E-3,7.2692074E-3,5.6604412E-3,1.864583E-2,1.9912917E-2,3.0590445E-2,2.9843127E-2,3.9762646E-2,1.7214192E-2,2.8353715E-2,3.0465955E-2,4.34636E-2,3.474724E-2,4.790413E-2],"split_indices":[17,5,19,19,17,17,19,17,17,17,5,5,5,17,17,9,5,17,5,5,5,17,5,17,17,17,17,5,17,5,17,0,0,0,0,0,5,0,17,0,0,17,17,5,5,17,17,5,5,5,5,19,5,5,17,17,17,5,5,17,17,5,0,0,0,0,0,0,0,0,0,0,0,0,0,0,0,0,0,0,0,0,0,0,0,0,0,0,0,0,0,0,0,0,0,0,0,0,0,0,0,0,0,0,0,0,0,0,0],"split_type":[0,0,0,0,0,0,0,0,0,0,0,0,0,0,0,0,0,0,0,0,0,0,0,0,0,0,0,0,0,0,0,0,0,0,0,0,0,0,0,0,0,0,0,0,0,0,0,0,0,0,0,0,0,0,0,0,0,0,0,0,0,0,0,0,0,0,0,0,0,0,0,0,0,0,0,0,0,0,0,0,0,0,0,0,0,0,0,0,0,0,0,0,0,0,0,0,0,0,0,0,0,0,0,0,0,0,0,0,0],"sum_hessian":[1.917E3,5.02E2,1.415E3,2.6E2,2.42E2,7.82E2,6.33E2,7.3E1,1.87E2,7.1E1,1.71E2,4.42E2,3.4E2,4.39E2,1.94E2,3.1E1,4.2E1,8.2E1,1.05E2,1.3E1,5.8E1,1.03E2,6.8E1,2.17E2,2.25E2,2.4E2,1E2,2.36E2,2.03E2,1.29E2,6.5E1,3E1,1E0,3.3E1,9E0,1.3E1,6.9E1,4.4E1,6.1E1,1.2E1,1E0,3.4E1,2.4E1,3.5E1,6.8E1,3.4E1,3.4E1,8.2E1,1.35E2,1.34E2,9.1E1,1.9E2,5E1,7E1,3E1,1.47E2,8.9E1,1.47E2,5.6E1,8.6E1,4.3E1,5.3E1,1.2E1,3.6E1,3.3E1,3.3E1,2.8E1,2.8E1,6E0,1.1E1,1.3E1,2.8E1,7E0,4.5E1,2.3E1,1.4E1,2E1,1.3E1,2.1E1,1.3E1,6.9E1,2.2E1,1.13E2,1.04E2,3E1,4.3E1,4.8E1,7.9E1,1.11E2,1.6E1,3.4E1,2.9E1,4.1E1,2E1,1E1,5.8E1,8.9E1,1.7E1,7.2E1,1.08E2,3.9E1,3E1,2.6E1,1.6E1,7E1,1.6E1,2.7E1,2.8E1,2.5E1],"tree_param":{"num_deleted":"0","num_feature":"30","num_nodes":"109","size_leaf_vector":"1"}},{"base_weights":[-5.47865E-4,-3.9211425E-1,1.3854708E-1,-5.969508E-1,-5.438665E-2,-1.00465655E-1,4.3351305E-1,-9.090603E-1,-4.803676E-1,-6.1287534E-1,9.761616E-2,-2.4627244E-1,1.1351682E-1,3.073879E-1,6.694604E-1,-6.497874E-2,-8.1239206E-1,-7.510286E-1,-3.7601042E-1,-1.1114557E0,-4.583269E-1,-8.0574214E-2,2.995289E-1,-3.920547E-1,-1.0253526E-1,-2.7385546E-2,3.0472067E-1,9.9885225E-2,4.612874E-1,5.908345E-1,9.2497194E-1,-4.6595957E-2,-3.4360677E-2,-4.8319314E-2,-6.434103E-1,-4.523446E-1,-2.7293262E-1,-5.8805414E-2,-1.4855886E-2,-5.1303554E-1,-1.8183258E-1,-1.9364248E-1,5.246732E-2,9.280046E-2,3.966529E-1,-4.958368E-1,-2.5593972E-1,-1.9879504E-1,2.5872633E-2,-1.5285392E-1,8.921936E-2,1.9294287E-1,4.4978875E-1,3.1372093E-2,2.4477498E-1,3.8580766E-1,6.266073E-1,4.3587804E-1,6.964948E-1,4.0563464E-2,5.6809682E-2,-3.3947866E-2,-2.2555003E-2,-2.8862316E-2,-1.943587E-2,-1.742126E-2,-8.429022E-3,-2.9867813E-2,-2.0287761E-2,-1.1357379E-2,2.2514344E-3,-1.5354318E-2,-5.5420646E-3,-1.0292575E-3,6.7390176E-3,-9.477343E-4,1.1329894E-2,1.5963078E-2,2.657409E-2,-3.298272E-2,-2.2220006E-2,-1.632864E-2,-8.142608E-3,-1.7625082E-2,-7.855224E-3,-2.6495457E-3,5.2887606E-3,-1.552344E-2,-4.494061E-3,-2.6159475E-4,9.599876E-3,4.9084886E-3,1.4026155E-2,1.7498579E-2,2.7571587E-2,-4.9588284E-3,4.146918E-3,3.774343E-3,1.4653816E-2,1.6688328E-2,2.5715565E-2,2.5990088E-2,3.556509E-2,1.490317E-2,2.452776E-2,3.048113E-2,4.2020556E-2],"categories":[],"categories_nodes":[],"categories_segments":[],"categories_sizes":[],"default_left":[0,0,0,0,0,0,0,0,0,0,0,0,0,0,0,0,0,0,0,0,0,0,0,0,0,0,0,0,0,0,0,0,0,0,0,0,0,0,0,0,0,0,0,0,0,0,0,0,0,0,0,0,0,0,0,0,0,0,0,0,0,0,0,0,0,0,0,0,0,0,0,0,0,0,0,0,0,0,0,0,0,0,0,0,0,0,0,0,0,0,0,0,0,0,0,0,0,0,0,0,0,0,0,0,0,0,0],"id":10,"left_children":[1,3,5,7,9,11,13,15,17,19,21,23,25,27,29,-1,31,33,35,37,39,41,43,45,47,49,51,53,55,57,59,-1,-1,-1,61,63,65,-1,-1,67,69,71,73,75,77,79,81,83,85,87,89,91,93,95,97,99,101,103,105,-1,-1,-1,-1,-1,-1,-1,-1,-1,-1,-1,-1,-1,-1,-1,-1,-1,-1,-1,-1,-1,-1,-1,-1,-1,-1,-1,-1,-1,-1,-1,-1,-1,-1,-1,-1,-1,-1,-1,-1,-1,-1,-1,-1,-1,-1,-1,-1],"loss_changes":[1.0451801E2,3.4764557E1,9.987244E1,1.095237E1,1.627417E1,2.445763E1,1.8661354E1,2.115265E0,6.214054E0,2.6498384E0,5.4569488E0,9.72452E0,8.575607E0,1.3206768E1,3.8732605E0,0E0,4.0692902E-1,8.3833313E-1,1.1984272E0,1.2439823E-1,4.0589237E-1,1.2286248E0,1.3887491E0,3.1362724E0,2.922225E0,2.7055995E0,2.102293E0,1.7593002E0,2.7280846E0,2.496151E0,2.79068E-1,0E0,0E0,0E0,1.3446808E-3,5.305939E-1,5.2422094E-1,0E0,0E0,1.8601418E-3,8.218968E-2,3.7926686E-1,2.3127495E-1,3.6315632E-1,3.3117867E-1,8.0225945E-1,6.174731E-1,8.0971575E-1,6.4834803E-1,8.5545826E-1,9.3292695E-1,6.198807E-1,3.9546585E-1,8.2951814E-1,4.4395638E-1,9.384613E-1,2.9061127E-1,3.9632607E-1,7.378998E-1,0E0,0E0,0E0,0E0,0E0,0E0,0E0,0E0,0E0,0E0,0E0,0E0,0E0,0E0,0E0,0E0,0E0,0E0,0E0,0E0,0E0,0E0,0E0,0E0,0E0,0E0,0E0,0E0,0E0,0E0,0E0,0E0,0E0,0E0,0E0,0E0,0E0,0E0,0E0,0E0,0E0,0E0,0E0,0E0,0E0,0E0,0E0,0E0],"parents":[2147483647,0,0,1,1,2,2,3,3,4,4,5,5,6,6,7,7,8,8,9,9,10,10,11,11,12,12,13,13,14,14,16,16,17,17,18,18,19,19,20,20,21,21,22,22,23,23,24,24,25,25,26,26,27,27,28,28,29,29,30,30,34,34,35,35,36,36,39,39,40,40,41,41,42,42,43,43,44,44,45,45,46,46,47,47,48,48,49,49,50,50,51,51,52,52,53,53,54,54,55,55,56,56,57,57,58,58],"right_children":[2,4,6,8,10,12,14,16,18,20,22,24,26,28,30,-1,32,34,36,38,40,42,44,46,48,50,52,54,56,58,60,-1,-1,-1,62,64,66,-1,-1,68,70,72,74,76,78,80,82,84,86,88,90,92,94,96,98,100,102,104,106,-1,-1,-1,-1,-1,-1,-1,-1,-1,-1,-1,-1,-1,-1,-1,-1,-1,-1,-1,-1,-1,-1,-1,-1,-1,-1,-1,-1,-1,-1,-1,-1,-1,-1,-1,-1,-1,-1,-1,-1,-1,-1,-1,-1,-1,-1,-1,-1],"split_conditions":[2.033772E-2,9.168E7,5.995706E7,4.432E7,7.4582365E-3,4.7727916E-2,1.16584E8,1.0395038E-2,1.1238645E-2,2.9411765E-3,1.57285E8,3.616E7,3.317E7,3.552318E-2,3.9386198E-2,-6.497874E-2,2.899E7,7.0978906E-3,1.6427744E-2,2.5758E8,2.2204E8,1.5413447E-2,1.2727773E-2,3.661226E-2,3.3042833E-2,6.61157E-2,6.585895E-2,8.61432E7,5.658915E-2,1.59341E8,5.4535564E-2,-4.6595957E-2,-3.4360677E-2,-4.8319314E-2,7.21167E7,5.864E7,6.413E7,-5.8805414E-2,-1.4855886E-2,1.2582E8,2.2E1,1.1732852E-2,1.7267888E-2,2.223156E8,2.223156E8,2.529E7,2.899E7,2.3048818E-2,4.779E7,2.507E7,2.529E7,4.432E7,4.452E7,2.452215E-2,2.2301517E-2,8.61432E7,6.515E7,2.6448803E-2,2.223156E8,4.0563464E-2,5.6809682E-2,-3.3947866E-2,-2.2555003E-2,-2.8862316E-2,-1.943587E-2,-1.742126E-2,-8.429022E-3,-2.9867813E-2,-2.0287761E-2,-1.1357379E-2,2.2514344E-3,-1.5354318E-2,-5.5420646E-3,-1.0292575E-3,6.7390176E-3,-9.477343E-4,1.1329894E-2,1.5963078E-2,2.657409E-2,-3.298272E-2,-2.2220006E-2,-1.632864E-2,-8.142608E-3,-1.7625082E-2,-7.855224E-3,-2.6495457E-3,5.2887606E-3,-1.552344E-2,-4.494061E-3,-2.6159475E-4,9.599876E-3,4.9084886E-3,1.4026155E-2,1.7498579E-2,2.7571587E-2,-4.9588284E-3,4.146918E-3,3.774343E-3,1.4653816E-2,1.6688328E-2,2.5715565E-2,2.5990088E-2,3.556509E-2,1.490317E-2,2.452776E-2,3.048113E-2,4.2020556E-2],"split_indices":[17,5,19,5,17,17,5,17,17,17,5,5,5,17,17,0,5,17,17,5,5,17,17,17,17,17,17,5,17,5,17,0,0,0,19,5,5,0,0,5,0,17,17,5,5,5,5,17,5,5,5,5,5,17,17,5,5,17,5,0,0,0,0,0,0,0,0,0,0,0,0,0,0,0,0,0,0,0,0,0,0,0,0,0,0,0,0,0,0,0,0,0,0,0,0,0,0,0,0,0,0,0,0,0,0,0,0],"split_type":[0,0,0,0,0,0,0,0,0,0,0,0,0,0,0,0,0,0,0,0,0,0,0,0,0,0,0,0,0,0,0,0,0,0,0,0,0,0,0,0,0,0,0,0,0,0,0,0,0,0,0,0,0,0,0,0,0,0,0,0,0,0,0,0,0,0,0,0,0,0,0,0,0,0,0,0,0,0,0,0,0,0,0,0,0,0,0,0,0,0,0,0,0,0,0,0,0,0,0,0,0,0,0,0,0,0,0],"sum_hessian":[1.917E3,5.02E2,1.415E3,3.12E2,1.9E2,7.82E2,6.33E2,8.3E1,2.29E2,4E1,1.5E2,4.65E2,3.17E2,4.14E2,2.19E2,1.4E1,6.9E1,6.2E1,1.67E2,8E0,3.2E1,8E1,7E1,2.3E2,2.35E2,1.83E2,1.34E2,1.77E2,2.37E2,1.7E2,4.9E1,3.2E1,3.7E1,1.8E1,4.4E1,9.4E1,7.3E1,7E0,1E0,2.6E1,6E0,4.3E1,3.7E1,2.3E1,4.7E1,1.29E2,1.01E2,1.34E2,1.01E2,8.8E1,9.5E1,7.7E1,5.7E1,1.21E2,5.6E1,1.65E2,7.2E1,7.1E1,9.9E1,3.5E1,1.4E1,3.5E1,9E0,2.9E1,6.5E1,4.1E1,3.2E1,1.2E1,1.4E1,5E0,1E0,1.7E1,2.6E1,2E1,1.7E1,1.3E1,1E1,3.2E1,1.5E1,2.8E1,1.01E2,5.6E1,4.5E1,2.7E1,1.07E2,5.1E1,5E1,2.4E1,6.4E1,5E1,4.5E1,3.8E1,3.9E1,3.1E1,2.6E1,3.4E1,8.7E1,1.3E1,4.3E1,1.2E2,4.5E1,3.5E1,3.7E1,2.2E1,4.9E1,6.5E1,3.4E1],"tree_param":{"num_deleted":"0","num_feature":"30","num_nodes":"107","size_leaf_vector":"1"}},{"base_weights":[-5.926882E-4,-3.8913655E-1,1.2650402E-1,-6.6770655E-1,-1.6984448E-1,-1.3647199E-1,3.68707E-1,-5.8565665E-2,-6.0184276E-1,-5.128741E-1,-2.4795623E-2,-2.5719053E-1,1.2306223E-1,2.5185648E-1,6.174256E-1,-7.6512307E-1,-4.6283904E-1,-4.7207423E-2,-4.1362086E-1,-1.988489E-1,2.7144918E-1,-3.8059902E-1,-1.4603241E-1,1.5584056E-2,2.8532374E-1,1.0651884E-1,4.7040677E-1,5.1935107E-1,8.107251E-1,-4.588186E-2,-6.680222E-1,-2.9603599E-2,-3.6035421E-1,-5.621671E-1,-2.3822275E-1,-3.0939007E-1,-1.1705022E-1,1.1169536E-1,3.752923E-1,-4.9725172E-1,-2.460493E-1,-3.1484303E-1,-6.2261317E-2,-3.9963853E-2,1.8680535E-1,2.0315024E-1,4.4549912E-1,-2.695335E-2,1.9445485E-1,4.1983855E-1,3.3744045E-2,3.792786E-1,6.3282925E-1,7.3752046E-1,5.4896183E-2,-3.6640476E-2,-2.5900204E-2,-2.0230768E-2,-1.2580059E-2,-2.9407928E-2,-1.6925765E-2,-1.3934771E-2,1.8034363E-3,-1.7096829E-2,-7.2505237E-3,-1.200398E-2,-2.9711889E-3,1.1745624E-3,9.09465E-3,1.5083049E-2,2.3804469E-2,-3.1794306E-2,-2.171585E-2,-1.9419607E-2,-1.0096273E-2,-2.0074865E-2,-1.1445547E-2,-6.948154E-3,7.5864623E-4,-7.357617E-3,1.2989283E-3,6.528478E-3,2.090524E-2,7.3646978E-3,1.6788471E-2,2.363949E-2,1.3104327E-2,-6.9109425E-3,3.4884163E-3,4.8015113E-3,1.5571731E-2,1.7888285E-2,2.6824355E-2,1.4171128E-2,2.2018606E-2,2.7863676E-2,3.768889E-2,2.9088533E-2,4.1848686E-2],"categories":[],"categories_nodes":[],"categories_segments":[],"categories_sizes":[],"default_left":[0,0,0,0,0,0,0,0,0,0,0,0,0,0,0,0,0,0,0,0,0,0,0,0,0,0,0,0,0,0,0,0,0,0,0,0,0,0,0,0,0,0,0,0,0,0,0,0,0,0,0,0,0,0,0,0,0,0,0,0,0,0,0,0,0,0,0,0,0,0,0,0,0,0,0,0,0,0,0,0,0,0,0,0,0,0,0,0,0,0,0,0,0,0,0,0,0,0,0],"id":11,"left_children":[1,3,5,7,9,11,13,-1,15,17,19,21,23,25,27,29,31,-1,33,35,37,39,41,43,45,47,49,51,53,-1,55,-1,57,59,61,63,65,67,69,71,73,75,77,79,81,83,85,87,89,91,-1,93,95,97,-1,-1,-1,-1,-1,-1,-1,-1,-1,-1,-1,-1,-1,-1,-1,-1,-1,-1,-1,-1,-1,-1,-1,-1,-1,-1,-1,-1,-1,-1,-1,-1,-1,-1,-1,-1,-1,-1,-1,-1,-1,-1,-1,-1,-1],"loss_changes":[9.476515E1,2.8781303E1,9.215124E1,6.194298E0,1.3222393E1,2.1775082E1,2.1728859E1,0E0,3.8674316E0,2.991106E0,9.7477045E0,6.446684E0,3.8496985E0,1.6276371E1,4.1288147E0,6.3097763E-1,1.1508179E0,0E0,1.5856915E0,1.0397987E0,1.1193347E0,3.3934631E0,3.5299025E0,1.2819374E0,1.0677676E0,3.6437147E0,1.836338E0,2.334999E0,8.511772E-1,0E0,1.5496254E-1,0E0,1.8701029E-1,4.3554306E-3,3.652941E-1,2.179141E-1,4.8201585E-1,1.7528692E-1,1.6809893E-1,7.620888E-1,5.8732843E-1,5.261421E-1,1.0058572E0,7.2478616E-1,3.746494E-1,3.9500022E-1,2.1245956E-2,1.3441046E0,2.1231527E0,1.0172596E0,0E0,3.1440258E-1,3.841133E-1,5.354004E-1,0E0,0E0,0E0,0E0,0E0,0E0,0E0,0E0,0E0,0E0,0E0,0E0,0E0,0E0,0E0,0E0,0E0,0E0,0E0,0E0,0E0,0E0,0E0,0E0,0E0,0E0,0E0,0E0,0E0,0E0,0E0,0E0,0E0,0E0,0E0,0E0,0E0,0E0,0E0,0E0,0E0,0E0,0E0,0E0,0E0],"parents":[2147483647,0,0,1,1,2,2,3,3,4,4,5,5,6,6,8,8,9,9,10,10,11,11,12,12,13,13,14,14,15,15,16,16,18,18,19,19,20,20,21,21,22,22,23,23,24,24,25,25,26,26,27,27,28,28,30,30,32,32,33,33,34,34,35,35,36,36,37,37,38,38,39,39,40,40,41,41,42,42,43,43,44,44,45,45,46,46,47,47,48,48,49,49,51,51,52,52,53,53],"right_children":[2,4,6,8,10,12,14,-1,16,18,20,22,24,26,28,30,32,-1,34,36,38,40,42,44,46,48,50,52,54,-1,56,-1,58,60,62,64,66,68,70,72,74,76,78,80,82,84,86,88,90,92,-1,94,96,98,-1,-1,-1,-1,-1,-1,-1,-1,-1,-1,-1,-1,-1,-1,-1,-1,-1,-1,-1,-1,-1,-1,-1,-1,-1,-1,-1,-1,-1,-1,-1,-1,-1,-1,-1,-1,-1,-1,-1,-1,-1,-1,-1,-1,-1],"split_conditions":[1.9729229E-2,6.584E7,5.608741E7,8.035065E-3,9.93495E-3,5.4765474E-2,1.122E8,-5.8565665E-2,4.2575028E7,4.142502E-3,1.2582E8,3.146E7,3.0583258E7,4.3602213E-2,3.405171E-2,2.899E7,1.284945E-2,-4.7207423E-2,1.2800704E8,1.4518344E-2,1.724008E8,3.79415E-2,2.804837E-2,9.2391305E-2,7.9338074E-2,2.7820282E-2,7.2448194E-2,1.59341E8,2.2204E8,-4.588186E-2,1.7157353E-2,-2.9603599E-2,1.7267888E-2,1E0,2.5758E8,9.542E7,7.53792E7,1.4304291E-2,1.686046E-2,2.6856024E-2,2.507E7,4.53E7,3.7656903E-2,2.507E7,1.2930012E-1,4.432E7,2.4691358E-1,6.742E7,7.2358E7,7.2358E7,3.3744045E-2,2.6448803E-2,2.223156E8,4.2234913E-2,5.4896183E-2,-3.6640476E-2,-2.5900204E-2,-2.0230768E-2,-1.2580059E-2,-2.9407928E-2,-1.6925765E-2,-1.3934771E-2,1.8034363E-3,-1.7096829E-2,-7.2505237E-3,-1.200398E-2,-2.9711889E-3,1.1745624E-3,9.09465E-3,1.5083049E-2,2.3804469E-2,-3.1794306E-2,-2.171585E-2,-1.9419607E-2,-1.0096273E-2,-2.0074865E-2,-1.1445547E-2,-6.948154E-3,7.5864623E-4,-7.357617E-3,1.2989283E-3,6.528478E-3,2.090524E-2,7.3646978E-3,1.6788471E-2,2.363949E-2,1.3104327E-2,-6.9109425E-3,3.4884163E-3,4.8015113E-3,1.5571731E-2,1.7888285E-2,2.6824355E-2,1.4171128E-2,2.2018606E-2,2.7863676E-2,3.768889E-2,2.9088533E-2,4.1848686E-2],"split_indices":[17,5,19,17,17,17,5,0,19,17,5,5,19,17,17,5,17,0,19,17,5,17,17,17,17,17,17,5,5,0,17,0,17,21,5,5,5,17,17,17,5,5,17,5,17,5,7,5,5,5,0,17,5,17,0,0,0,0,0,0,0,0,0,0,0,0,0,0,0,0,0,0,0,0,0,0,0,0,0,0,0,0,0,0,0,0,0,0,0,0,0,0,0,0,0,0,0,0,0],"split_type":[0,0,0,0,0,0,0,0,0,0,0,0,0,0,0,0,0,0,0,0,0,0,0,0,0,0,0,0,0,0,0,0,0,0,0,0,0,0,0,0,0,0,0,0,0,0,0,0,0,0,0,0,0,0,0,0,0,0,0,0,0,0,0,0,0,0,0,0,0,0,0,0,0,0,0,0,0,0,0,0,0,0,0,0,0,0,0,0,0,0,0,0,0,0,0,0,0,0,0],"sum_hessian":[1.917E3,4.72E2,1.445E3,2.07E2,2.65E2,6.93E2,7.52E2,2.2E1,1.85E2,7.8E1,1.87E2,4.73E2,2.2E2,5.13E2,2.39E2,8.3E1,1.02E2,1.3E1,6.5E1,1.18E2,6.9E1,2.23E2,2.5E2,1.33E2,8.7E1,3.09E2,2.04E2,1.61E2,7.8E1,2.9E1,5.4E1,4.3E1,5.9E1,3.4E1,3.1E1,4.9E1,6.9E1,2.8E1,4.1E1,1.18E2,1.05E2,8.2E1,1.68E2,1.01E2,3.2E1,5.9E1,2.8E1,1.23E2,1.86E2,1.66E2,3.8E1,7.4E1,8.7E1,6.5E1,1.3E1,3.5E1,1.9E1,4E1,1.9E1,2.9E1,5E0,2.7E1,4E0,4E1,9E0,2.1E1,4.8E1,1.3E1,1.5E1,2.6E1,1.5E1,3.4E1,8.4E1,2.3E1,8.2E1,3.9E1,4.3E1,8.4E1,8.4E1,3.8E1,6.3E1,2.7E1,5E0,4.3E1,1.6E1,2.3E1,5E0,5.7E1,6.6E1,1.02E2,8.4E1,1.11E2,5.5E1,3.1E1,4.3E1,5.7E1,3E1,2.8E1,3.7E1],"tree_param":{"num_deleted":"0","num_feature":"30","num_nodes":"99","size_leaf_vector":"1"}},{"base_weights":[-5.8420456E-4,-3.555174E-1,1.254977E-1,-5.8543617E-1,-1.07104555E-1,-9.090909E-2,3.9256555E-1,-8.506652E-1,-4.7792345E-1,-4.737816E-1,4.701086E-2,-2.3135592E-1,9.1814816E-2,2.878083E-1,6.2692773E-1,-6.1702766E-2,-7.565566E-1,-6.4671934E-1,-3.4124437E-1,-9.0031254E-1,-3.6454067E-1,-1.206802E-1,2.9908127E-1,-3.4197357E-1,-6.318492E-2,-1.3909162E-3,3.1330755E-1,6.4276E-2,3.985955E-1,5.349148E-1,7.9866636E-1,-4.4440772E-2,-3.3079695E-2,-4.0518116E-2,-5.533493E-1,-2.240813E-2,-2.889532E-1,-9.286311E-1,-1.3304281E-2,-4.803195E-1,-1.8786865E-1,-2.606105E-1,-4.592409E-2,1.9908595E-1,3.9053142E-1,-4.6811807E-1,-2.6485202E-1,-1.9913675E-1,2.5517058E-2,-5.854122E-2,2.1266983E-1,2.3125479E-1,4.9112818E-1,-1.60949E-2,1.8108205E-1,3.0073598E-1,5.231576E-1,4.2515892E-1,6.381298E-1,7.200274E-1,5.3194232E-2,-3.2433357E-2,-2.2777768E-2,-1.6425582E-2,-1.1338341E-2,-5.416733E-2,-2.8378597E-2,-2.561955E-2,-1.3941744E-2,-1.5575624E-2,-3.4234524E-3,-1.4750197E-2,-3.7990026E-3,-4.9309637E-3,2.849426E-3,3.4748872E-3,1.4108433E-2,1.29081225E-2,2.2850743E-2,-2.8147155E-2,-1.8845815E-2,-2.3771407E-2,-1.1408574E-2,-1.4942427E-2,-7.1991566E-3,-2.0898334E-3,4.0032323E-3,-8.489885E-3,1.0725196E-3,1.7904815E-3,1.46248555E-2,7.2800177E-3,1.4346524E-2,2.0088127E-2,2.9957179E-2,-6.0110716E-3,1.3566714E-3,4.2505334E-3,1.1349625E-2,1.0463924E-2,1.999818E-2,2.3218289E-2,3.3305418E-2,1.5499407E-2,2.3784956E-2,2.7853845E-2,3.766918E-2,2.9723704E-2,4.1618712E-2],"categories":[],"categories_nodes":[],"categories_segments":[],"categories_sizes":[],"default_left":[0,0,0,0,0,0,0,0,0,0,0,0,0,0,0,0,0,0,0,0,0,0,0,0,0,0,0,0,0,0,0,0,0,0,0,0,0,0,0,0,0,0,0,0,0,0,0,0,0,0,0,0,0,0,0,0,0,0,0,0,0,0,0,0,0,0,0,0,0,0,0,0,0,0,0,0,0,0,0,0,0,0,0,0,0,0,0,0,0,0,0,0,0,0,0,0,0,0,0,0,0,0,0,0,0,0,0,0,0],"id":12,"left_children":[1,3,5,7,9,11,13,15,17,19,21,23,25,27,29,-1,31,33,35,37,39,41,43,45,47,49,51,53,55,57,59,-1,-1,-1,61,-1,63,65,-1,67,69,71,73,75,77,79,81,83,85,87,89,91,93,95,97,99,101,103,105,107,-1,-1,-1,-1,-1,-1,-1,-1,-1,-1,-1,-1,-1,-1,-1,-1,-1,-1,-1,-1,-1,-1,-1,-1,-1,-1,-1,-1,-1,-1,-1,-1,-1,-1,-1,-1,-1,-1,-1,-1,-1,-1,-1,-1,-1,-1,-1,-1,-1],"loss_changes":[8.587636E1,2.8666027E1,8.187383E1,7.035988E0,1.3754344E1,2.0115368E1,1.5384979E1,1.736309E0,4.1166344E0,3.0266132E0,7.3065257E0,8.2193775E0,7.0401745E0,1.08707695E1,2.6542053E0,0E0,1.906662E-1,8.197708E-1,4.6313572E-1,4.351616E-3,1.116602E0,1.0759389E0,5.5322695E-1,2.4735165E0,2.139559E0,2.9607563E0,1.3600817E0,1.3829224E0,3.4264069E0,1.2013931E0,6.1050034E-1,0E0,0E0,0E0,2.2649956E-1,0E0,1.07543945E-1,1.1132145E-1,0E0,8.3293915E-2,3.477465E-1,2.061882E-1,3.7980705E-1,3.5721886E-1,1.9002771E-1,6.526375E-1,1.1891603E0,3.419335E-1,3.9990094E-1,1.7034632E0,7.0955706E-1,2.9681253E-1,5.8525562E-2,3.99369E-1,2.4534392E-1,1.431839E0,7.6643753E-1,2.3670864E-1,1.8751526E-1,2.668743E-1,0E0,0E0,0E0,0E0,0E0,0E0,0E0,0E0,0E0,0E0,0E0,0E0,0E0,0E0,0E0,0E0,0E0,0E0,0E0,0E0,0E0,0E0,0E0,0E0,0E0,0E0,0E0,0E0,0E0,0E0,0E0,0E0,0E0,0E0,0E0,0E0,0E0,0E0,0E0,0E0,0E0,0E0,0E0,0E0,0E0,0E0,0E0,0E0,0E0],"parents":[2147483647,0,0,1,1,2,2,3,3,4,4,5,5,6,6,7,7,8,8,9,9,10,10,11,11,12,12,13,13,14,14,16,16,17,17,18,18,19,19,20,20,21,21,22,22,23,23,24,24,25,25,26,26,27,27,28,28,29,29,30,30,34,34,36,36,37,37,39,39,40,40,41,41,42,42,43,43,44,44,45,45,46,46,47,47,48,48,49,49,50,50,51,51,52,52,53,53,54,54,55,55,56,56,57,57,58,58,59,59],"right_children":[2,4,6,8,10,12,14,16,18,20,22,24,26,28,30,-1,32,34,36,38,40,42,44,46,48,50,52,54,56,58,60,-1,-1,-1,62,-1,64,66,-1,68,70,72,74,76,78,80,82,84,86,88,90,92,94,96,98,100,102,104,106,108,-1,-1,-1,-1,-1,-1,-1,-1,-1,-1,-1,-1,-1,-1,-1,-1,-1,-1,-1,-1,-1,-1,-1,-1,-1,-1,-1,-1,-1,-1,-1,-1,-1,-1,-1,-1,-1,-1,-1,-1,-1,-1,-1,-1,-1,-1,-1,-1,-1],"split_conditions":[2.033772E-2,7.2358E7,5.995706E7,3.9881204E7,9.93495E-3,4.646078E-2,1.2547737E8,1.0395038E-2,1.3287946E-2,4.142502E-3,1.32912E8,4.432E7,3.777E7,3.0977655E-2,3.405171E-2,-6.1702766E-2,2.724614E7,9.36895E-3,5.173E7,2.5758E8,1.362E8,1.3830157E-2,1.84652E8,3.0847115E-2,2.7820282E-2,8.5507244E-2,7.036536E-2,8.455E7,4.9895544E-2,1.724008E8,5.385253E-2,-4.4440772E-2,-3.3079695E-2,-4.0518116E-2,5.618E7,-2.240813E-2,1.7157353E-2,2.9411765E-3,-1.3304281E-2,9.131313E-3,6.5269736E-3,1.122E8,1.0909E8,1.5705049E-2,1.3287946E-2,2.961E7,2.507E7,2.3048818E-2,3.429164E-2,2.4882802E7,2.16E7,4.53E7,9.2391305E-2,2.3794204E-2,2.3048818E-2,7.7519E7,7.263131E7,2.5525525E-2,2.6963277E-2,1.64788E8,5.3194232E-2,-3.2433357E-2,-2.2777768E-2,-1.6425582E-2,-1.1338341E-2,-5.416733E-2,-2.8378597E-2,-2.561955E-2,-1.3941744E-2,-1.5575624E-2,-3.4234524E-3,-1.4750197E-2,-3.7990026E-3,-4.9309637E-3,2.849426E-3,3.4748872E-3,1.4108433E-2,1.29081225E-2,2.2850743E-2,-2.8147155E-2,-1.8845815E-2,-2.3771407E-2,-1.1408574E-2,-1.4942427E-2,-7.1991566E-3,-2.0898334E-3,4.0032323E-3,-8.489885E-3,1.0725196E-3,1.7904815E-3,1.46248555E-2,7.2800177E-3,1.4346524E-2,2.0088127E-2,2.9957179E-2,-6.0110716E-3,1.3566714E-3,4.2505334E-3,1.1349625E-2,1.0463924E-2,1.999818E-2,2.3218289E-2,3.3305418E-2,1.5499407E-2,2.3784956E-2,2.7853845E-2,3.766918E-2,2.9723704E-2,4.1618712E-2],"split_indices":[17,5,19,19,17,17,19,17,17,17,5,5,5,17,17,0,19,17,5,5,5,17,5,17,17,17,17,5,17,5,17,0,0,0,5,0,17,17,0,17,17,5,5,17,17,5,5,17,17,19,5,5,17,17,17,5,19,17,17,5,0,0,0,0,0,0,0,0,0,0,0,0,0,0,0,0,0,0,0,0,0,0,0,0,0,0,0,0,0,0,0,0,0,0,0,0,0,0,0,0,0,0,0,0,0,0,0,0,0],"split_type":[0,0,0,0,0,0,0,0,0,0,0,0,0,0,0,0,0,0,0,0,0,0,0,0,0,0,0,0,0,0,0,0,0,0,0,0,0,0,0,0,0,0,0,0,0,0,0,0,0,0,0,0,0,0,0,0,0,0,0,0,0,0,0,0,0,0,0,0,0,0,0,0,0,0,0,0,0,0,0,0,0,0,0,0,0,0,0,0,0,0,0,0,0,0,0,0,0,0,0,0,0,0,0,0,0,0,0,0,0],"sum_hessian":[1.917E3,5.02E2,1.415E3,2.6E2,2.42E2,7.82E2,6.33E2,7.3E1,1.87E2,7.1E1,1.71E2,4.42E2,3.4E2,4.39E2,1.94E2,1.2E1,6.1E1,8.2E1,1.05E2,1.3E1,5.8E1,1.03E2,6.8E1,2.66E2,1.76E2,2.4E2,1E2,1.46E2,2.93E2,1.29E2,6.5E1,2.2E1,3.9E1,2.7E1,5.5E1,3.2E1,7.3E1,1.2E1,1E0,3.4E1,2.4E1,3.5E1,6.8E1,3.4E1,3.4E1,9.9E1,1.67E2,6.9E1,1.07E2,1.9E2,5E1,7E1,3E1,8.7E1,5.9E1,1.66E2,1.27E2,6.5E1,6.4E1,5.3E1,1.2E1,2.5E1,3E1,4.2E1,3.1E1,7E0,5E0,2.8E1,6E0,1.1E1,1.3E1,2.9E1,6E0,4.5E1,2.3E1,1.4E1,2E1,1.3E1,2.1E1,4.6E1,5.3E1,2.3E1,1.44E2,2.3E1,4.6E1,4.8E1,5.9E1,7.9E1,1.11E2,1.6E1,3.4E1,2.9E1,4.1E1,1.9E1,1.1E1,2.5E1,6.2E1,2E1,3.9E1,8.8E1,7.8E1,9.3E1,3.4E1,2.2E1,4.3E1,4.1E1,2.3E1,2.8E1,2.5E1],"tree_param":{"num_deleted":"0","num_feature":"30","num_nodes":"109","size_leaf_vector":"1"}},{"base_weights":[-6.078485E-4,-3.6846882E-1,1.098007E-1,-6.2202454E-1,-1.7559288E-1,-9.895447E-2,3.6453664E-1,-1.0673265E0,-5.577407E-1,-6.0804164E-1,-8.663133E-2,-2.5886172E-1,5.8464017E-2,2.5072005E-1,5.561342E-1,-1.1039222E0,-2.2769054E-2,-7.333304E-1,-4.5435798E-1,-9.7849613E-1,-4.954093E-1,-2.3187807E-1,1.6914713E-1,-4.0992084E-1,-1.2749344E-1,-7.7212736E-2,1.9319834E-1,6.621094E-2,3.9490503E-1,4.890738E-1,7.923728E-1,-5.636495E-2,-1.5909696E-2,-3.8724232E-2,-2.3792917E-2,-5.502674E-1,-3.6375225E-1,-5.433906E-2,-1.9983292E-2,-3.1420197E-2,-3.3489192E-1,-3.8164815E-1,-1.5018062E-1,4.1786715E-2,3.1303576E-1,-5.5469364E-1,-3.4217665E-1,-2.3548509E-1,-4.6127714E-2,-1.7792574E-1,4.5989223E-2,8.915648E-2,3.289707E-1,-4.5085233E-2,1.2978661E-1,3.3881128E-1,5.723244E-1,4.2432663E-1,7.0163065E-1,3.20605E-2,4.5221966E-2,-2.89267E-2,-1.8826041E-2,-2.2079365E-2,-1.5625704E-2,-8.349257E-3,-1.8546889E-2,-2.0288441E-2,-1.0666949E-2,-1.1102329E-2,-3.9087245E-3,-8.390977E-3,5.626652E-3,5.312835E-3,1.841603E-2,-3.2690603E-2,-2.448204E-2,-2.7734458E-2,-1.4807249E-2,-1.5551261E-2,-8.358853E-3,-9.052168E-3,-2.6582836E-4,-1.1529154E-2,-2.944622E-3,2.4038732E-4,1.390135E-2,3.6073526E-4,9.47575E-3,1.2491592E-2,2.3106478E-2,-8.194022E-3,7.646239E-4,1.8834433E-3,9.202514E-3,1.4854873E-2,2.2570942E-2,2.4884755E-2,3.4903966E-2,1.5913107E-2,2.4230761E-2,2.8493255E-2,4.0374663E-2],"categories":[],"categories_nodes":[],"categories_segments":[],"categories_sizes":[],"default_left":[0,0,0,0,0,0,0,0,0,0,0,0,0,0,0,0,0,0,0,0,0,0,0,0,0,0,0,0,0,0,0,0,0,0,0,0,0,0,0,0,0,0,0,0,0,0,0,0,0,0,0,0,0,0,0,0,0,0,0,0,0,0,0,0,0,0,0,0,0,0,0,0,0,0,0,0,0,0,0,0,0,0,0,0,0,0,0,0,0,0,0,0,0,0,0,0,0,0,0,0,0,0,0],"id":13,"left_children":[1,3,5,7,9,11,13,15,17,19,21,23,25,27,29,31,-1,33,35,37,39,41,43,45,47,49,51,53,55,57,59,-1,-1,-1,-1,61,63,-1,-1,-1,65,67,69,71,73,75,77,79,81,83,85,87,89,91,93,95,97,99,101,-1,-1,-1,-1,-1,-1,-1,-1,-1,-1,-1,-1,-1,-1,-1,-1,-1,-1,-1,-1,-1,-1,-1,-1,-1,-1,-1,-1,-1,-1,-1,-1,-1,-1,-1,-1,-1,-1,-1,-1,-1,-1,-1,-1],"loss_changes":[7.794002E1,2.15556E1,7.8525986E1,4.8722153E0,9.680569E0,2.045509E1,1.43622055E1,1.2371063E-2,2.7346535E0,1.3094244E0,7.8780794E0,7.9450207E0,7.5098467E0,1.1120697E1,3.5255127E0,2.7023315E-2,0E0,2.7781677E-1,7.470436E-1,1.2975883E-1,5.367317E-1,1.5945215E0,1.3979995E0,1.6442051E0,1.8958774E0,2.5518308E0,2.880628E0,1.3148612E0,2.1448364E0,2.3859596E0,3.179016E-1,0E0,0E0,0E0,0E0,3.264332E-2,9.729719E-2,0E0,0E0,0E0,4.700136E-2,1.04240894E-1,4.4319773E-1,6.416979E-1,3.7240624E-1,5.384636E-2,1.1074314E0,4.2788315E-1,6.872953E-1,6.947019E-1,8.873395E-1,9.69012E-1,8.224306E-1,4.9024177E-1,5.829073E-1,7.1609306E-1,1.6874504E-1,8.1772614E-1,1.5359497E-1,0E0,0E0,0E0,0E0,0E0,0E0,0E0,0E0,0E0,0E0,0E0,0E0,0E0,0E0,0E0,0E0,0E0,0E0,0E0,0E0,0E0,0E0,0E0,0E0,0E0,0E0,0E0,0E0,0E0,0E0,0E0,0E0,0E0,0E0,0E0,0E0,0E0,0E0,0E0,0E0,0E0,0E0,0E0,0E0],"parents":[2147483647,0,0,1,1,2,2,3,3,4,4,5,5,6,6,7,7,8,8,9,9,10,10,11,11,12,12,13,13,14,14,15,15,17,17,18,18,19,19,20,20,21,21,22,22,23,23,24,24,25,25,26,26,27,27,28,28,29,29,30,30,35,35,36,36,40,40,41,41,42,42,43,43,44,44,45,45,46,46,47,47,48,48,49,49,50,50,51,51,52,52,53,53,54,54,55,55,56,56,57,57,58,58],"right_children":[2,4,6,8,10,12,14,16,18,20,22,24,26,28,30,32,-1,34,36,38,40,42,44,46,48,50,52,54,56,58,60,-1,-1,-1,-1,62,64,-1,-1,-1,66,68,70,72,74,76,78,80,82,84,86,88,90,92,94,96,98,100,102,-1,-1,-1,-1,-1,-1,-1,-1,-1,-1,-1,-1,-1,-1,-1,-1,-1,-1,-1,-1,-1,-1,-1,-1,-1,-1,-1,-1,-1,-1,-1,-1,-1,-1,-1,-1,-1,-1,-1,-1,-1,-1,-1,-1],"split_conditions":[1.8853502E-2,6.584E7,5.995706E7,8.035065E-3,7.0978906E-3,4.1268107E-2,1.122E8,6.4511904E7,4.452E7,2.9411765E-3,1.2582E8,3.616E7,2.992485E7,3.552318E-2,3.9386198E-2,1.2903225E0,-2.2769054E-2,1.7873771E-2,1.3287946E-2,5.4945055E-2,1.2582E8,1.2362211E-2,2.2204E8,2.6963277E-2,2.7373068E-2,6.224563E-2,6.180106E-2,6.78288E7,6.133507E-2,2.2204E8,1.57285E8,-5.636495E-2,-1.5909696E-2,-3.8724232E-2,-2.3792917E-2,6.378E7,5.173E7,-5.433906E-2,-1.9983292E-2,-3.1420197E-2,4.9460605E-1,1.0909E8,8.455E7,1.0725487E-2,1.0906258E-2,2.724614E7,2.16E7,5.0105E7,4.432E7,2.76E7,1.08283564E-1,4.432E7,4.53E7,2.4358103E-2,2.5135009E-2,8.61432E7,8.1141576E-2,2.5525525E-2,2.5525525E-2,3.20605E-2,4.5221966E-2,-2.89267E-2,-1.8826041E-2,-2.2079365E-2,-1.5625704E-2,-8.349257E-3,-1.8546889E-2,-2.0288441E-2,-1.0666949E-2,-1.1102329E-2,-3.9087245E-3,-8.390977E-3,5.626652E-3,5.312835E-3,1.841603E-2,-3.2690603E-2,-2.448204E-2,-2.7734458E-2,-1.4807249E-2,-1.5551261E-2,-8.358853E-3,-9.052168E-3,-2.6582836E-4,-1.1529154E-2,-2.944622E-3,2.4038732E-4,1.390135E-2,3.6073526E-4,9.47575E-3,1.2491592E-2,2.3106478E-2,-8.194022E-3,7.646239E-4,1.8834433E-3,9.202514E-3,1.4854873E-2,2.2570942E-2,2.4884755E-2,3.4903966E-2,1.5913107E-2,2.4230761E-2,2.8493255E-2,4.0374663E-2],"split_indices":[17,5,19,17,17,17,5,19,5,17,5,5,19,17,17,15,0,17,17,6,5,17,5,17,17,17,17,5,17,5,5,0,0,0,0,5,5,0,0,0,4,5,5,17,17,19,5,5,5,5,17,5,5,17,17,5,17,17,17,0,0,0,0,0,0,0,0,0,0,0,0,0,0,0,0,0,0,0,0,0,0,0,0,0,0,0,0,0,0,0,0,0,0,0,0,0,0,0,0,0,0,0,0],"split_type":[0,0,0,0,0,0,0,0,0,0,0,0,0,0,0,0,0,0,0,0,0,0,0,0,0,0,0,0,0,0,0,0,0,0,0,0,0,0,0,0,0,0,0,0,0,0,0,0,0,0,0,0,0,0,0,0,0,0,0,0,0,0,0,0,0,0,0,0,0,0,0,0,0,0,0,0,0,0,0,0,0,0,0,0,0,0,0,0,0,0,0,0,0,0,0,0,0,0,0,0,0,0,0],"sum_hessian":[1.917E3,4.42E2,1.475E3,1.9E2,2.52E2,8.11E2,6.64E2,2.2E1,1.68E2,4.2E1,2.1E2,4.02E2,4.09E2,4.18E2,2.46E2,2E1,2E0,6E1,1.08E2,8E0,3.4E1,1.34E2,7.6E1,1.86E2,2.16E2,2.04E2,2.05E2,1.84E2,2.34E2,1.94E2,5.2E1,1.9E1,1E0,5E1,1E1,5E1,5.8E1,6E0,2E0,1.7E1,1.7E1,4.6E1,8.8E1,4.1E1,3.5E1,5.7E1,1.29E2,9.2E1,1.24E2,1.12E2,9.2E1,1.17E2,8.8E1,6.7E1,1.17E2,1.8E2,5.4E1,1.51E2,4.3E1,2.5E1,2.7E1,4.1E1,9E0,2E1,3.8E1,4E0,1.3E1,3.9E1,7E0,4.3E1,4.5E1,1E1,3.1E1,8E0,2.7E1,1.9E1,3.8E1,2.1E1,1.08E2,4.2E1,5E1,2.8E1,9.6E1,7.7E1,3.5E1,7.9E1,1.3E1,6.5E1,5.2E1,5.7E1,3.1E1,2.2E1,4.5E1,4.4E1,7.3E1,1.34E2,4.6E1,3.7E1,1.7E1,5.7E1,9.4E1,2.2E1,2.1E1],"tree_param":{"num_deleted":"0","num_feature":"30","num_nodes":"103","size_leaf_vector":"1"}},{"base_weights":[-6.823405E-4,-3.3620125E-1,1.0906948E-1,-5.766903E-1,-1.4688577E-1,-1.3425773E-1,3.0408025E-1,-5.090462E-2,-5.190078E-1,-4.4526175E-1,-2.0723054E-2,-2.5242484E-1,6.973569E-2,1.8462074E-1,4.924708E-1,-6.6608304E-1,-4.0172386E-1,-4.1330885E-2,-3.5762167E-1,-1.7068443E-1,2.3450732E-1,-3.8103908E-1,-1.8527743E-1,-4.3404862E-2,1.5702584E-1,4.705302E-2,3.859222E-1,3.9553672E-1,6.297963E-1,-3.9904717E-2,-5.7711345E-1,-2.5089944E-2,-3.0341047E-1,-4.6822953E-1,-1.8051292E-1,-2.6737407E-1,-9.918205E-2,9.517005E-2,3.251329E-1,-5.0482285E-1,-2.806359E-1,-2.8010792E-1,-8.099763E-2,-1.0607465E-1,1.3048723E-1,1.001119E-1,3.2818332E-1,-4.7813013E-2,1.3720968E-1,3.2018012E-1,5.4135656E-1,2.8462565E-1,5.544113E-1,5.268821E-1,7.881991E-1,-3.5119034E-2,-2.5096426E-2,-1.7102057E-2,-1.1136916E-2,-2.5822556E-2,-1.7089289E-2,-1.4575466E-2,-4.2991787E-3,-1.5742335E-2,-8.667394E-3,-1.02881E-2,-2.4652851E-3,1.8781814E-3,9.301012E-3,1.3875696E-2,2.3445046E-2,-3.0733986E-2,-2.278187E-2,-1.8495709E-2,-1.1868121E-2,-1.826135E-2,-1.1071223E-2,-6.2549333E-3,8.892536E-4,-9.219197E-3,-2.7460733E-3,3.0652697E-3,1.6463744E-2,1.5668821E-3,8.155219E-3,1.2182427E-2,1.9254647E-2,-6.3133165E-3,6.5225916E-4,2.97918E-3,1.0454792E-2,1.2314102E-2,1.804807E-2,2.4894638E-2,3.9344687E-2,7.6958314E-3,1.5945708E-2,2.3671253E-2,3.2704383E-2,2.250522E-2,3.388945E-2,3.5272952E-2,5.341777E-2],"categories":[],"categories_nodes":[],"categories_segments":[],"categories_sizes":[],"default_left":[0,0,0,0,0,0,0,0,0,0,0,0,0,0,0,0,0,0,0,0,0,0,0,0,0,0,0,0,0,0,0,0,0,0,0,0,0,0,0,0,0,0,0,0,0,0,0,0,0,0,0,0,0,0,0,0,0,0,0,0,0,0,0,0,0,0,0,0,0,0,0,0,0,0,0,0,0,0,0,0,0,0,0,0,0,0,0,0,0,0,0,0,0,0,0,0,0,0,0,0,0,0,0],"id":14,"left_children":[1,3,5,7,9,11,13,-1,15,17,19,21,23,25,27,29,31,-1,33,35,37,39,41,43,45,47,49,51,53,-1,55,-1,57,59,61,63,65,67,69,71,73,75,77,79,81,83,85,87,89,91,93,95,97,99,101,-1,-1,-1,-1,-1,-1,-1,-1,-1,-1,-1,-1,-1,-1,-1,-1,-1,-1,-1,-1,-1,-1,-1,-1,-1,-1,-1,-1,-1,-1,-1,-1,-1,-1,-1,-1,-1,-1,-1,-1,-1,-1,-1,-1,-1,-1,-1,-1],"loss_changes":[7.066474E1,2.145018E1,6.8655594E1,4.7675323E0,1.0004055E1,1.5541425E1,1.7980621E1,0E0,2.940834E0,2.3447266E0,7.2356696E0,3.4529362E0,2.3474412E0,1.3634283E1,3.8907776E0,4.9074936E-1,8.906536E-1,0E0,1.208394E0,7.961924E-1,8.529835E-1,1.5858593E0,2.647317E0,1.1472106E0,1.2724719E0,2.521085E0,1.8703842E0,3.1020775E0,1.655056E0,0E0,1.3720322E-1,0E0,9.833431E-2,6.737709E-2,2.5823015E-1,1.6860557E-1,3.6196214E-1,1.4478552E-1,1.5740919E-1,4.9533844E-2,2.1740341E-1,6.234369E-1,5.6855947E-1,2.9831755E-1,3.648835E-1,4.3677938E-1,6.493068E-2,6.8917906E-1,8.301573E-1,3.4205532E-1,2.271862E-1,4.4839573E-1,2.9577065E-1,6.218281E-1,3.5896492E-1,0E0,0E0,0E0,0E0,0E0,0E0,0E0,0E0,0E0,0E0,0E0,0E0,0E0,0E0,0E0,0E0,0E0,0E0,0E0,0E0,0E0,0E0,0E0,0E0,0E0,0E0,0E0,0E0,0E0,0E0,0E0,0E0,0E0,0E0,0E0,0E0,0E0,0E0,0E0,0E0,0E0,0E0,0E0,0E0,0E0,0E0,0E0,0E0],"parents":[2147483647,0,0,1,1,2,2,3,3,4,4,5,5,6,6,8,8,9,9,10,10,11,11,12,12,13,13,14,14,15,15,16,16,18,18,19,19,20,20,21,21,22,22,23,23,24,24,25,25,26,26,27,27,28,28,30,30,32,32,33,33,34,34,35,35,36,36,37,37,38,38,39,39,40,40,41,41,42,42,43,43,44,44,45,45,46,46,47,47,48,48,49,49,50,50,51,51,52,52,53,53,54,54],"right_children":[2,4,6,8,10,12,14,-1,16,18,20,22,24,26,28,30,32,-1,34,36,38,40,42,44,46,48,50,52,54,-1,56,-1,58,60,62,64,66,68,70,72,74,76,78,80,82,84,86,88,90,92,94,96,98,100,102,-1,-1,-1,-1,-1,-1,-1,-1,-1,-1,-1,-1,-1,-1,-1,-1,-1,-1,-1,-1,-1,-1,-1,-1,-1,-1,-1,-1,-1,-1,-1,-1,-1,-1,-1,-1,-1,-1,-1,-1,-1,-1,-1,-1,-1,-1,-1,-1],"split_conditions":[1.9729229E-2,6.584E7,5.181553E7,8.035065E-3,9.93495E-3,5.0944686E-2,9.314534E7,-5.090462E-2,4.53E7,4.142502E-3,1.2582E8,2.798E7,2.622E7,4.3602213E-2,3.324808E-2,2.899E7,1.4084079E-2,-4.1330885E-2,1.3488109E8,1.4518344E-2,1.724008E8,3.5682425E-2,3.324808E-2,9.2391305E-2,7.9338074E-2,2.9752588E-2,6.687648E-2,1.64788E8,1.57285E8,-3.9904717E-2,1.2727773E-2,-2.5089944E-2,1.7267888E-2,1.0909E8,6.1955308E-3,9.168E7,7.53792E7,1.586754E-2,3.054E8,2.5525525E-2,2.507E7,2.4770098E-2,4.032117E7,6.224563E-2,3.4E0,6.133507E-2,9.5208205E-2,6.378E7,6.413E7,6.222E7,1.0248916E-1,1.0909E8,2.223156E8,5.0305426E-2,5.2928943E-2,-3.5119034E-2,-2.5096426E-2,-1.7102057E-2,-1.1136916E-2,-2.5822556E-2,-1.7089289E-2,-1.4575466E-2,-4.2991787E-3,-1.5742335E-2,-8.667394E-3,-1.02881E-2,-2.4652851E-3,1.8781814E-3,9.301012E-3,1.3875696E-2,2.3445046E-2,-3.0733986E-2,-2.278187E-2,-1.8495709E-2,-1.1868121E-2,-1.826135E-2,-1.1071223E-2,-6.2549333E-3,8.892536E-4,-9.219197E-3,-2.7460733E-3,3.0652697E-3,1.6463744E-2,1.5668821E-3,8.155219E-3,1.2182427E-2,1.9254647E-2,-6.3133165E-3,6.5225916E-4,2.97918E-3,1.0454792E-2,1.2314102E-2,1.804807E-2,2.4894638E-2,3.9344687E-2,7.6958314E-3,1.5945708E-2,2.3671253E-2,3.2704383E-2,2.250522E-2,3.388945E-2,3.5272952E-2,5.341777E-2],"split_indices":[17,5,19,17,17,17,19,0,5,17,5,5,5,17,17,5,17,0,19,17,5,17,17,17,17,17,17,5,5,0,17,0,17,5,17,5,5,17,5,17,5,17,19,17,1,17,17,5,5,5,17,5,5,17,17,0,0,0,0,0,0,0,0,0,0,0,0,0,0,0,0,0,0,0,0,0,0,0,0,0,0,0,0,0,0,0,0,0,0,0,0,0,0,0,0,0,0,0,0,0,0,0,0],"split_type":[0,0,0,0,0,0,0,0,0,0,0,0,0,0,0,0,0,0,0,0,0,0,0,0,0,0,0,0,0,0,0,0,0,0,0,0,0,0,0,0,0,0,0,0,0,0,0,0,0,0,0,0,0,0,0,0,0,0,0,0,0,0,0,0,0,0,0,0,0,0,0,0,0,0,0,0,0,0,0,0,0,0,0,0,0,0,0,0,0,0,0,0,0,0,0,0,0,0,0,0,0,0,0],"sum_hessian":[1.917E3,4.72E2,1.445E3,2.07E2,2.65E2,6.43E2,8.02E2,2.2E1,1.85E2,7.8E1,1.87E2,4.07E2,2.36E2,4.92E2,3.1E2,8E1,1.05E2,1.3E1,6.5E1,1.18E2,6.9E1,1.38E2,2.69E2,1.03E2,1.33E2,2.93E2,1.99E2,1.84E2,1.26E2,2.9E1,5.1E1,5E1,5.5E1,3.9E1,2.6E1,4.9E1,6.9E1,2.8E1,4.1E1,6E1,7.8E1,1.4E2,1.29E2,7.6E1,2.7E1,1.01E2,3.2E1,1.43E2,1.5E2,1.42E2,5.7E1,1.1E2,7.4E1,7.9E1,4.7E1,1.6E1,3.5E1,3.5E1,2E1,2.6E1,1.3E1,1.1E1,1.5E1,3.1E1,1.8E1,2.1E1,4.8E1,1.8E1,1E1,3.3E1,8E0,1.5E1,4.5E1,2.3E1,5.5E1,5.5E1,8.5E1,8.9E1,4E1,2.9E1,4.7E1,2.1E1,6E0,4.9E1,5.2E1,1.5E1,1.7E1,6.2E1,8.1E1,7.3E1,7.7E1,5.3E1,8.9E1,5.1E1,6E0,2.4E1,8.6E1,4.4E1,3E1,5.5E1,2.4E1,3.9E1,8E0],"tree_param":{"num_deleted":"0","num_feature":"30","num_nodes":"103","size_leaf_vector":"1"}},{"base_weights":[-6.6826714E-4,-3.3429417E-1,9.946516E-2,-5.6374604E-1,-1.5975028E-1,-8.9613155E-2,3.3019018E-1,-9.694014E-1,-5.052028E-1,-5.5551875E-1,-7.8338936E-2,-2.3507072E-1,5.3579554E-2,2.3835066E-1,5.2666783E-1,-1.0036874E0,-2.031328E-2,-6.647205E-1,-4.112965E-1,-9.010902E-1,-4.5078558E-1,-2.0998085E-1,1.534792E-1,-3.7338227E-1,-1.14797294E-1,-3.472565E-2,2.2599277E-1,4.5848463E-2,3.4361258E-1,4.4861427E-1,6.913519E-1,-5.1269658E-2,-1.4239335E-2,-3.5143953E-2,-2.1368718E-2,-4.8606524E-1,-3.1673464E-1,-5.0238885E-2,-1.7939473E-2,-5.7432264E-1,-3.0220488E-1,-3.4616995E-1,-1.3570143E-1,3.690774E-2,2.8521594E-1,-5.0498223E-1,-3.1179625E-1,-2.1486276E-1,-4.354191E-2,-1.1056837E-1,1.1734138E-1,1.3635792E-1,3.604104E-1,-2.7106086E-2,1.4969605E-1,2.5689432E-1,4.5406836E-1,3.8729635E-1,3.0345742E-2,6.1611444E-1,4.6339855E-2,-2.6591513E-2,-1.9565498E-2,-1.9262873E-2,-1.2796337E-2,-3.109177E-2,-1.6321115E-2,-7.4322796E-3,-1.6773071E-2,-2.0271055E-2,-1.3624752E-2,-1.0056527E-2,-3.5083522E-3,-7.667806E-3,5.057879E-3,4.96486E-3,1.6739463E-2,-3.1188345E-2,-2.284026E-2,-2.5381872E-2,-1.34704085E-2,-1.4320152E-2,-7.595125E-3,-8.335397E-3,-2.8895272E-4,-9.168204E-3,-1.2669193E-3,5.8425905E-4,1.0800247E-2,3.6627303E-3,9.173695E-3,1.5214957E-2,2.5914261E-2,-5.898808E-3,1.1182581E-3,3.9067967E-3,9.8022865E-3,8.826612E-3,1.720885E-2,1.8122105E-2,2.6358133E-2,1.4189755E-2,2.1755269E-2,2.6212055E-2,3.7646394E-2],"categories":[],"categories_nodes":[],"categories_segments":[],"categories_sizes":[],"default_left":[0,0,0,0,0,0,0,0,0,0,0,0,0,0,0,0,0,0,0,0,0,0,0,0,0,0,0,0,0,0,0,0,0,0,0,0,0,0,0,0,0,0,0,0,0,0,0,0,0,0,0,0,0,0,0,0,0,0,0,0,0,0,0,0,0,0,0,0,0,0,0,0,0,0,0,0,0,0,0,0,0,0,0,0,0,0,0,0,0,0,0,0,0,0,0,0,0,0,0,0,0,0,0,0,0],"id":15,"left_children":[1,3,5,7,9,11,13,15,17,19,21,23,25,27,29,31,-1,33,35,37,39,41,43,45,47,49,51,53,55,57,59,-1,-1,-1,-1,61,63,-1,-1,65,67,69,71,73,75,77,79,81,83,85,87,89,91,93,95,97,99,101,-1,103,-1,-1,-1,-1,-1,-1,-1,-1,-1,-1,-1,-1,-1,-1,-1,-1,-1,-1,-1,-1,-1,-1,-1,-1,-1,-1,-1,-1,-1,-1,-1,-1,-1,-1,-1,-1,-1,-1,-1,-1,-1,-1,-1,-1,-1],"loss_changes":[6.4108086E1,1.7651833E1,6.4420235E1,4.046196E0,8.108153E0,1.6925306E1,1.1874001E1,3.631401E-2,2.258175E0,1.1500921E0,6.4713116E0,6.6611214E0,6.250091E0,9.203981E0,2.4020767E0,3.5671234E-2,0E0,2.5207138E-1,6.1670494E-1,1.455636E-1,4.6887016E-1,1.3186903E0,1.1719425E0,1.3581314E0,1.5378983E0,3.149998E0,1.625597E0,1.2313948E0,2.69944E0,1.1821156E0,5.981312E-1,0E0,0E0,0E0,0E0,4.7740936E-2,1.1390543E-1,0E0,0E0,9.030819E-3,4.2058468E-2,9.4694614E-2,3.6750662E-1,5.2893883E-1,2.9855418E-1,4.697609E-2,9.424124E-1,3.618722E-1,5.943774E-1,1.1245506E0,9.4609797E-1,2.3927963E-1,3.295064E-1,4.3420234E-1,2.0690644E-1,1.1106157E0,6.6619873E-1,4.1093445E-1,0E0,2.714672E-1,0E0,0E0,0E0,0E0,0E0,0E0,0E0,0E0,0E0,0E0,0E0,0E0,0E0,0E0,0E0,0E0,0E0,0E0,0E0,0E0,0E0,0E0,0E0,0E0,0E0,0E0,0E0,0E0,0E0,0E0,0E0,0E0,0E0,0E0,0E0,0E0,0E0,0E0,0E0,0E0,0E0,0E0,0E0,0E0,0E0],"parents":[2147483647,0,0,1,1,2,2,3,3,4,4,5,5,6,6,7,7,8,8,9,9,10,10,11,11,12,12,13,13,14,14,15,15,17,17,18,18,19,19,20,20,21,21,22,22,23,23,24,24,25,25,26,26,27,27,28,28,29,29,30,30,35,35,36,36,39,39,40,40,41,41,42,42,43,43,44,44,45,45,46,46,47,47,48,48,49,49,50,50,51,51,52,52,53,53,54,54,55,55,56,56,57,57,59,59],"right_children":[2,4,6,8,10,12,14,16,18,20,22,24,26,28,30,32,-1,34,36,38,40,42,44,46,48,50,52,54,56,58,60,-1,-1,-1,-1,62,64,-1,-1,66,68,70,72,74,76,78,80,82,84,86,88,90,92,94,96,98,100,102,-1,104,-1,-1,-1,-1,-1,-1,-1,-1,-1,-1,-1,-1,-1,-1,-1,-1,-1,-1,-1,-1,-1,-1,-1,-1,-1,-1,-1,-1,-1,-1,-1,-1,-1,-1,-1,-1,-1,-1,-1,-1,-1,-1,-1,-1,-1],"split_conditions":[1.8853502E-2,6.584E7,5.995706E7,8.035065E-3,7.0978906E-3,4.1268107E-2,1.2547737E8,6.4511904E7,4.452E7,2.9411765E-3,1.2582E8,3.616E7,3.659E7,3.0977655E-2,3.405171E-2,1.2903225E0,-2.031328E-2,1.7873771E-2,1.4518344E-2,5.4945055E-2,1.2582E8,1.2362211E-2,2.2204E8,2.6963277E-2,2.7265646E-2,7.2448194E-2,6.224563E-2,8.455E7,4.9895544E-2,2.2204E8,2.2204E8,-5.1269658E-2,-1.4239335E-2,-3.5143953E-2,-2.1368718E-2,6.0645E7,5.328E7,-5.0238885E-2,-1.7939473E-2,6.5269736E-3,4.9460605E-1,8.455E7,8.455E7,1.0725487E-2,1.0906258E-2,2.394728E7,2.16E7,5.0105E7,4.432E7,2.76E7,2.529E7,4.53E7,9.2391305E-2,2.3794204E-2,2.3048818E-2,7.7519E7,6.515E7,2.3794204E-2,3.0345742E-2,4.5875605E-2,4.6339855E-2,-2.6591513E-2,-1.9565498E-2,-1.9262873E-2,-1.2796337E-2,-3.109177E-2,-1.6321115E-2,-7.4322796E-3,-1.6773071E-2,-2.0271055E-2,-1.3624752E-2,-1.0056527E-2,-3.5083522E-3,-7.667806E-3,5.057879E-3,4.96486E-3,1.6739463E-2,-3.1188345E-2,-2.284026E-2,-2.5381872E-2,-1.34704085E-2,-1.4320152E-2,-7.595125E-3,-8.335397E-3,-2.8895272E-4,-9.168204E-3,-1.2669193E-3,5.8425905E-4,1.0800247E-2,3.6627303E-3,9.173695E-3,1.5214957E-2,2.5914261E-2,-5.898808E-3,1.1182581E-3,3.9067967E-3,9.8022865E-3,8.826612E-3,1.720885E-2,1.8122105E-2,2.6358133E-2,1.4189755E-2,2.1755269E-2,2.6212055E-2,3.7646394E-2],"split_indices":[17,5,19,17,17,17,19,19,5,17,5,5,5,17,17,15,0,17,17,6,5,17,5,17,17,17,17,5,17,5,5,0,0,0,0,5,5,0,0,17,4,5,5,17,17,19,5,5,5,5,5,5,17,17,17,5,5,17,0,17,0,0,0,0,0,0,0,0,0,0,0,0,0,0,0,0,0,0,0,0,0,0,0,0,0,0,0,0,0,0,0,0,0,0,0,0,0,0,0,0,0,0,0,0,0],"split_type":[0,0,0,0,0,0,0,0,0,0,0,0,0,0,0,0,0,0,0,0,0,0,0,0,0,0,0,0,0,0,0,0,0,0,0,0,0,0,0,0,0,0,0,0,0,0,0,0,0,0,0,0,0,0,0,0,0,0,0,0,0,0,0,0,0,0,0,0,0,0,0,0,0,0,0,0,0,0,0,0,0,0,0,0,0,0,0,0,0,0,0,0,0,0,0,0,0,0,0,0,0,0,0,0,0],"sum_hessian":[1.917E3,4.42E2,1.475E3,1.9E2,2.52E2,8.11E2,6.64E2,2.2E1,1.68E2,4.2E1,2.1E2,4.02E2,4.09E2,4.54E2,2.1E2,2E1,2E0,6E1,1.08E2,8E0,3.4E1,1.34E2,7.6E1,1.86E2,2.16E2,2.71E2,1.38E2,1.61E2,2.93E2,1.45E2,6.5E1,1.9E1,1E0,5E1,1E1,5.8E1,5E1,6E0,2E0,1.7E1,1.7E1,4.6E1,8.8E1,4.1E1,3.5E1,5.7E1,1.29E2,8.9E1,1.27E2,1.81E2,9E1,8.4E1,5.4E1,9.5E1,6.6E1,1.66E2,1.27E2,1.07E2,3.8E1,5.2E1,1.3E1,3.6E1,2.2E1,2.1E1,2.9E1,1.3E1,4E0,4E0,1.3E1,2.3E1,2.3E1,4.3E1,4.5E1,1E1,3.1E1,8E0,2.7E1,1.3E1,4.4E1,2.1E1,1.08E2,4E1,4.9E1,2.9E1,9.8E1,9.7E1,8.4E1,4.4E1,4.6E1,3.7E1,4.7E1,4.2E1,1.2E1,3.3E1,6.2E1,2.7E1,3.9E1,8.8E1,7.8E1,5.9E1,6.8E1,3.6E1,7.1E1,3.4E1,1.8E1],"tree_param":{"num_deleted":"0","num_feature":"30","num_nodes":"105","size_leaf_vector":"1"}},{"base_weights":[-7.397982E-4,-2.928245E-1,1.030168E-1,-4.8208877E-1,-8.833562E-2,-1.16366036E-1,2.8001466E-1,-7.0374465E-1,-3.9227694E-1,-3.93433E-1,3.989314E-2,-2.137958E-1,8.231346E-2,1.8799281E-1,4.841127E-1,-8.773574E-1,-5.5817825E-1,-5.4242074E-1,-2.878238E-1,-7.5508636E-1,-3.009486E-1,-9.750047E-2,2.46401E-1,-2.96564E-1,-1.24364726E-1,1.2709353E-3,